<?xml version="1.0"?>
<opencv_storage>
<cascade>
  <stageType>BOOST</stageType>
  <featureType>HAAR</featureType>
  <height>20</height>
  <width>20</width>
  <stageParams>
    <boostType>GAB</boostType>
    <minHitRate>9.9500000476837158e-01</minHitRate>
    <maxFalseAlarm>5.0000000000000000e-01</maxFalseAlarm>
    <weightTrimRate>9.4999999999999996e-01</weightTrimRate>
    <maxDepth>1</maxDepth>
    <maxWeakCount>100</maxWeakCount></stageParams>
  <featureParams>
    <maxCatCount>0</maxCatCount>
    <featSize>1</featSize>
    <mode>BASIC</mode></featureParams>
  <stageNum>10</stageNum>
  <stages>
    <!-- stage 0 -->
    <_>
      <maxWeakCount>3</maxWeakCount>
      <stageThreshold>-3.5807681083679199e-01</stageThreshold>
      <weakClassifiers>
        <_>
          <internalNodes>
            0 -1 34 -3.5585023462772369e-02</internalNodes>
          <leafValues>
            5.8835339546203613e-01 -9.1176468133926392e-01</leafValues></_>
        <_>
          <internalNodes>
            0 -1 76 -3.4811311960220337e-01</internalNodes>
          <leafValues>
            4.5462486147880554e-01 -5.3685331344604492e-01</leafValues></_>
        <_>
          <internalNodes>
            0 -1 19 -2.0087264478206635e-02</internalNodes>
          <leafValues>
            9.9063053727149963e-02 -9.6680343151092529e-01</leafValues></_></weakClassifiers></_>
    <!-- stage 1 -->
    <_>
      <maxWeakCount>21</maxWeakCount>
      <stageThreshold>-7.3045474290847778e-01</stageThreshold>
      <weakClassifiers>
        <_>
          <internalNodes>
            0 -1 77 -3.7801706790924072e-01</internalNodes>
          <leafValues>
            6.7816090583801270e-01 -3.1414869427680969e-01</leafValues></_>
        <_>
          <internalNodes>
            0 -1 181 -4.5033127069473267e-02</internalNodes>
          <leafValues>
            -2.8915051370859146e-02 8.1117933988571167e-01</leafValues></_>
        <_>
          <internalNodes>
            0 -1 28 -4.0413081645965576e-02</internalNodes>
          <leafValues>
            1.0299830138683319e-01 -6.5902107954025269e-01</leafValues></_>
        <_>
          <internalNodes>
            0 -1 137 -1.5776552259922028e-02</internalNodes>
          <leafValues>
            2.3324561119079590e-01 -4.5143789052963257e-01</leafValues></_>
        <_>
          <internalNodes>
            0 -1 170 -4.4811099767684937e-02</internalNodes>
          <leafValues>
            -8.8954120874404907e-02 8.8075995445251465e-01</leafValues></_>
        <_>
          <internalNodes>
            0 -1 207 -4.3333545327186584e-02</internalNodes>
          <leafValues>
            -4.8947334289550781e-01 1.1769592761993408e-01</leafValues></_>
        <_>
          <internalNodes>
            0 -1 38 -2.4906757473945618e-01</internalNodes>
          <leafValues>
            -9.5683854818344116e-01 7.3127023875713348e-02</leafValues></_>
        <_>
          <internalNodes>
            0 -1 187 -6.5589598380029202e-03</internalNodes>
          <leafValues>
            -5.7908409833908081e-01 8.2871183753013611e-02</leafValues></_>
        <_>
          <internalNodes>
            0 -1 26 -1.1743582785129547e-02</internalNodes>
          <leafValues>
            2.3726283013820648e-01 -1.8350715935230255e-01</leafValues></_>
        <_>
          <internalNodes>
            0 -1 49 -2.0337570458650589e-03</internalNodes>
          <leafValues>
            -2.6667433977127075e-01 1.6105265915393829e-01</leafValues></_>
        <_>
          <internalNodes>
            0 -1 231 4.1628405451774597e-03</internalNodes>
          <leafValues>
            1.4049850404262543e-01 -3.1801700592041016e-01</leafValues></_>
        <_>
          <internalNodes>
            0 -1 119 -9.6799514722079039e-05</internalNodes>
          <leafValues>
            2.6531007885932922e-01 -1.6033759713172913e-01</leafValues></_>
        <_>
          <internalNodes>
            0 -1 79 -5.5220719426870346e-02</internalNodes>
          <leafValues>
            3.4269186854362488e-01 -1.4043058454990387e-01</leafValues></_>
        <_>
          <internalNodes>
            0 -1 58 9.6712671220302582e-02</internalNodes>
          <leafValues>
            -6.4134232699871063e-02 8.9390361309051514e-01</leafValues></_>
        <_>
          <internalNodes>
            0 -1 99 5.2700601518154144e-03</internalNodes>
          <leafValues>
            -1.6338099539279938e-01 2.5925961136817932e-01</leafValues></_>
        <_>
          <internalNodes>
            0 -1 138 5.9899277985095978e-03</internalNodes>
          <leafValues>
            1.3246627151966095e-01 -3.5347905755043030e-01</leafValues></_>
        <_>
          <internalNodes>
            0 -1 16 1.1086523532867432e-01</internalNodes>
          <leafValues>
            -8.0943524837493896e-02 5.5394524335861206e-01</leafValues></_>
        <_>
          <internalNodes>
            0 -1 95 -1.2548606842756271e-02</internalNodes>
          <leafValues>
            -8.2822263240814209e-01 5.6995786726474762e-02</leafValues></_>
        <_>
          <internalNodes>
            0 -1 112 -2.1507486235350370e-04</internalNodes>
          <leafValues>
            2.0516198873519897e-01 -1.9553583860397339e-01</leafValues></_>
        <_>
          <internalNodes>
            0 -1 61 3.1938549131155014e-02</internalNodes>
          <leafValues>
            -5.1626868546009064e-02 8.2564264535903931e-01</leafValues></_>
        <_>
          <internalNodes>
            0 -1 70 1.2472020462155342e-02</internalNodes>
          <leafValues>
            8.5334330797195435e-02 -6.6771459579467773e-01</leafValues></_></weakClassifiers></_>
    <!-- stage 2 -->
    <_>
      <maxWeakCount>31</maxWeakCount>
      <stageThreshold>-8.7651133537292480e-01</stageThreshold>
      <weakClassifiers>
        <_>
          <internalNodes>
            0 -1 51 -3.5506609082221985e-01</internalNodes>
          <leafValues>
            6.6878980398178101e-01 -3.0120483040809631e-01</leafValues></_>
        <_>
          <internalNodes>
            0 -1 195 -1.1256752535700798e-02</internalNodes>
          <leafValues>
            2.5041621923446655e-01 -3.5549306869506836e-01</leafValues></_>
        <_>
          <internalNodes>
            0 -1 250 -1.4770362526178360e-02</internalNodes>
          <leafValues>
            -7.8581988811492920e-02 8.2994526624679565e-01</leafValues></_>
        <_>
          <internalNodes>
            0 -1 7 -7.7377384901046753e-01</internalNodes>
          <leafValues>
            -8.9109730720520020e-01 6.4787499606609344e-02</leafValues></_>
        <_>
          <internalNodes>
            0 -1 206 2.4115826934576035e-02</internalNodes>
          <leafValues>
            8.5728853940963745e-02 -5.6284207105636597e-01</leafValues></_>
        <_>
          <internalNodes>
            0 -1 249 -5.7999040000140667e-03</internalNodes>
          <leafValues>
            3.6991241574287415e-01 -1.3151335716247559e-01</leafValues></_>
        <_>
          <internalNodes>
            0 -1 106 2.4721841327846050e-03</internalNodes>
          <leafValues>
            1.1332561820745468e-01 -4.2305976152420044e-01</leafValues></_>
        <_>
          <internalNodes>
            0 -1 75 6.5193547925446182e-05</internalNodes>
          <leafValues>
            -2.6493614912033081e-01 1.9131338596343994e-01</leafValues></_>
        <_>
          <internalNodes>
            0 -1 13 -6.6678106784820557e-02</internalNodes>
          <leafValues>
            2.6150822639465332e-01 -2.0003730058670044e-01</leafValues></_>
        <_>
          <internalNodes>
            0 -1 43 9.0815261006355286e-02</internalNodes>
          <leafValues>
            -7.5343050062656403e-02 5.9662091732025146e-01</leafValues></_>
        <_>
          <internalNodes>
            0 -1 196 -1.0504393838346004e-02</internalNodes>
          <leafValues>
            -8.9045321941375732e-01 4.4095776975154877e-02</leafValues></_>
        <_>
          <internalNodes>
            0 -1 52 -6.7351259291172028e-02</internalNodes>
          <leafValues>
            3.9699718356132507e-01 -1.2266983091831207e-01</leafValues></_>
        <_>
          <internalNodes>
            0 -1 57 9.5900427550077438e-03</internalNodes>
          <leafValues>
            1.0020801424980164e-01 -4.7148263454437256e-01</leafValues></_>
        <_>
          <internalNodes>
            0 -1 63 1.1742927599698305e-03</internalNodes>
          <leafValues>
            -1.6607764363288879e-01 2.9948067665100098e-01</leafValues></_>
        <_>
          <internalNodes>
            0 -1 71 5.7282880879938602e-03</internalNodes>
          <leafValues>
            1.5516330301761627e-01 -3.1762343645095825e-01</leafValues></_>
        <_>
          <internalNodes>
            0 -1 27 -1.9119583885185421e-04</internalNodes>
          <leafValues>
            -1.7883136868476868e-01 2.2458618879318237e-01</leafValues></_>
        <_>
          <internalNodes>
            0 -1 31 5.1995576359331608e-03</internalNodes>
          <leafValues>
            1.1651453375816345e-01 -4.0348184108734131e-01</leafValues></_>
        <_>
          <internalNodes>
            0 -1 103 -5.1500881090760231e-04</internalNodes>
          <leafValues>
            2.1187421679496765e-01 -2.1728646755218506e-01</leafValues></_>
        <_>
          <internalNodes>
            0 -1 114 -1.4583829045295715e-01</internalNodes>
          <leafValues>
            2.0606698095798492e-01 -2.1339012682437897e-01</leafValues></_>
        <_>
          <internalNodes>
            0 -1 134 3.5735810524784029e-04</internalNodes>
          <leafValues>
            -1.1630656570196152e-01 3.8366854190826416e-01</leafValues></_>
        <_>
          <internalNodes>
            0 -1 66 -2.9692079871892929e-02</internalNodes>
          <leafValues>
            -6.0543394088745117e-01 8.2252874970436096e-02</leafValues></_>
        <_>
          <internalNodes>
            0 -1 230 6.9525688886642456e-03</internalNodes>
          <leafValues>
            1.0193211585283279e-01 -4.3570306897163391e-01</leafValues></_>
        <_>
          <internalNodes>
            0 -1 72 1.1611091904342175e-03</internalNodes>
          <leafValues>
            -1.0314963757991791e-01 4.2498496174812317e-01</leafValues></_>
        <_>
          <internalNodes>
            0 -1 125 -9.2608109116554260e-03</internalNodes>
          <leafValues>
            -5.6801605224609375e-01 7.1884579956531525e-02</leafValues></_>
        <_>
          <internalNodes>
            0 -1 54 -3.4437465667724609e-01</internalNodes>
          <leafValues>
            -5.3924493491649628e-02 8.1616234779357910e-01</leafValues></_>
        <_>
          <internalNodes>
            0 -1 14 -4.4343017041683197e-02</internalNodes>
          <leafValues>
            8.2996457815170288e-02 -6.6525703668594360e-01</leafValues></_>
        <_>
          <internalNodes>
            0 -1 69 -5.3175576031208038e-02</internalNodes>
          <leafValues>
            -1.1479747295379639e-01 4.8548603057861328e-01</leafValues></_>
        <_>
          <internalNodes>
            0 -1 156 1.6708724200725555e-02</internalNodes>
          <leafValues>
            -1.0560972243547440e-01 4.4718572497367859e-01</leafValues></_>
        <_>
          <internalNodes>
            0 -1 236 -4.6676993370056152e-03</internalNodes>
          <leafValues>
            2.3187294602394104e-01 -1.9351074099540710e-01</leafValues></_>
        <_>
          <internalNodes>
            0 -1 183 8.5040042176842690e-03</internalNodes>
          <leafValues>
            6.9855883717536926e-02 -6.0600513219833374e-01</leafValues></_>
        <_>
          <internalNodes>
            0 -1 101 -3.5585532896220684e-04</internalNodes>
          <leafValues>
            3.1551381945610046e-01 -1.4157213270664215e-01</leafValues></_></weakClassifiers></_>
    <!-- stage 3 -->
    <_>
      <maxWeakCount>28</maxWeakCount>
      <stageThreshold>-7.4696964025497437e-01</stageThreshold>
      <weakClassifiers>
        <_>
          <internalNodes>
            0 -1 37 -6.3836121559143066e-01</internalNodes>
          <leafValues>
            7.2549021244049072e-01 -1.5083798766136169e-01</leafValues></_>
        <_>
          <internalNodes>
            0 -1 219 -4.7233201563358307e-02</internalNodes>
          <leafValues>
            -4.6234384179115295e-02 7.0678633451461792e-01</leafValues></_>
        <_>
          <internalNodes>
            0 -1 152 -3.9470502734184265e-01</internalNodes>
          <leafValues>
            9.7935944795608521e-01 -6.4606688916683197e-02</leafValues></_>
        <_>
          <internalNodes>
            0 -1 133 -2.9657846689224243e-01</internalNodes>
          <leafValues>
            3.7471345067024231e-01 -2.0343346893787384e-01</leafValues></_>
        <_>
          <internalNodes>
            0 -1 141 -3.0433250591158867e-02</internalNodes>
          <leafValues>
            -6.7723028361797333e-02 9.7813451290130615e-01</leafValues></_>
        <_>
          <internalNodes>
            0 -1 73 5.4196910932660103e-03</internalNodes>
          <leafValues>
            1.7675019800662994e-01 -3.9846315979957581e-01</leafValues></_>
        <_>
          <internalNodes>
            0 -1 0 -3.1740337610244751e-02</internalNodes>
          <leafValues>
            8.4043212234973907e-02 -5.8867484331130981e-01</leafValues></_>
        <_>
          <internalNodes>
            0 -1 215 -4.2768934508785605e-04</internalNodes>
          <leafValues>
            2.4868153035640717e-01 -1.8347540497779846e-01</leafValues></_>
        <_>
          <internalNodes>
            0 -1 214 6.6377385519444942e-04</internalNodes>
          <leafValues>
            -1.0687689483165741e-01 4.7392866015434265e-01</leafValues></_>
        <_>
          <internalNodes>
            0 -1 41 -2.0757332444190979e-02</internalNodes>
          <leafValues>
            -4.4913452863693237e-01 1.1028311401605606e-01</leafValues></_>
        <_>
          <internalNodes>
            0 -1 153 -5.8995924890041351e-02</internalNodes>
          <leafValues>
            -8.0000385642051697e-02 6.5893989801406860e-01</leafValues></_>
        <_>
          <internalNodes>
            0 -1 157 -4.3419771827757359e-03</internalNodes>
          <leafValues>
            3.3459302783012390e-01 -1.4331696927547455e-01</leafValues></_>
        <_>
          <internalNodes>
            0 -1 208 2.5998752564191818e-02</internalNodes>
          <leafValues>
            5.2917290478944778e-02 -8.3893525600433350e-01</leafValues></_>
        <_>
          <internalNodes>
            0 -1 210 5.7293125428259373e-04</internalNodes>
          <leafValues>
            -1.0795947909355164e-01 4.3090170621871948e-01</leafValues></_>
        <_>
          <internalNodes>
            0 -1 222 -4.3201543390750885e-02</internalNodes>
          <leafValues>
            -6.1231440305709839e-01 7.9857796430587769e-02</leafValues></_>
        <_>
          <internalNodes>
            0 -1 212 6.9988716859370470e-04</internalNodes>
          <leafValues>
            -1.0426916927099228e-01 4.4376194477081299e-01</leafValues></_>
        <_>
          <internalNodes>
            0 -1 150 2.6473166421055794e-02</internalNodes>
          <leafValues>
            8.6433134973049164e-02 -5.5811738967895508e-01</leafValues></_>
        <_>
          <internalNodes>
            0 -1 224 1.1194727849215269e-03</internalNodes>
          <leafValues>
            -8.1565558910369873e-02 5.3003972768783569e-01</leafValues></_>
        <_>
          <internalNodes>
            0 -1 172 -2.7703028172254562e-02</internalNodes>
          <leafValues>
            -5.0610184669494629e-01 9.9797457456588745e-02</leafValues></_>
        <_>
          <internalNodes>
            0 -1 85 5.1706134399864823e-05</internalNodes>
          <leafValues>
            1.8451982736587524e-01 -2.2740401327610016e-01</leafValues></_>
        <_>
          <internalNodes>
            0 -1 180 -1.0700314305722713e-03</internalNodes>
          <leafValues>
            3.5823473334312439e-01 -1.1012684553861618e-01</leafValues></_>
        <_>
          <internalNodes>
            0 -1 45 1.1288533918559551e-02</internalNodes>
          <leafValues>
            8.2740910351276398e-02 -4.7190073132514954e-01</leafValues></_>
        <_>
          <internalNodes>
            0 -1 116 -2.8772300481796265e-01</internalNodes>
          <leafValues>
            4.9637863039970398e-01 -8.6268149316310883e-02</leafValues></_>
        <_>
          <internalNodes>
            0 -1 120 1.6952694859355688e-03</internalNodes>
          <leafValues>
            1.0414951294660568e-01 -4.3499523401260376e-01</leafValues></_>
        <_>
          <internalNodes>
            0 -1 235 -6.4719980582594872e-04</internalNodes>
          <leafValues>
            4.4630733132362366e-01 -8.8942050933837891e-02</leafValues></_>
        <_>
          <internalNodes>
            0 -1 25 -2.7000380214303732e-04</internalNodes>
          <leafValues>
            -1.8456450104713440e-01 2.2538371384143829e-01</leafValues></_>
        <_>
          <internalNodes>
            0 -1 47 -4.8990696668624878e-03</internalNodes>
          <leafValues>
            1.0352117568254471e-01 -4.1893234848976135e-01</leafValues></_>
        <_>
          <internalNodes>
            0 -1 15 1.1630929075181484e-03</internalNodes>
          <leafValues>
            1.7047064006328583e-01 -2.7264401316642761e-01</leafValues></_></weakClassifiers></_>
    <!-- stage 4 -->
    <_>
      <maxWeakCount>22</maxWeakCount>
      <stageThreshold>-8.6307388544082642e-01</stageThreshold>
      <weakClassifiers>
        <_>
          <internalNodes>
            0 -1 11 -2.1729677915573120e-01</internalNodes>
          <leafValues>
            -1.9141323864459991e-01 7.9095160961151123e-01</leafValues></_>
        <_>
          <internalNodes>
            0 -1 252 -1.4374657534062862e-02</internalNodes>
          <leafValues>
            -7.0768713951110840e-02 8.4238177537918091e-01</leafValues></_>
        <_>
          <internalNodes>
            0 -1 56 -1.0224741697311401e-01</internalNodes>
          <leafValues>
            3.5102230310440063e-01 -2.5889477133750916e-01</leafValues></_>
        <_>
          <internalNodes>
            0 -1 140 4.8006395809352398e-04</internalNodes>
          <leafValues>
            -1.6155090928077698e-01 5.4824411869049072e-01</leafValues></_>
        <_>
          <internalNodes>
            0 -1 212 2.3083013365976512e-04</internalNodes>
          <leafValues>
            -1.6251780092716217e-01 4.2842155694961548e-01</leafValues></_>
        <_>
          <internalNodes>
            0 -1 211 -1.2932368554174900e-03</internalNodes>
          <leafValues>
            5.1716309785842896e-01 -1.4678701758384705e-01</leafValues></_>
        <_>
          <internalNodes>
            0 -1 55 -3.4947502613067627e-01</internalNodes>
          <leafValues>
            -4.9604389071464539e-01 1.3577744364738464e-01</leafValues></_>
        <_>
          <internalNodes>
            0 -1 189 -8.9252053294330835e-04</internalNodes>
          <leafValues>
            6.6504573822021484e-01 -1.0786075890064240e-01</leafValues></_>
        <_>
          <internalNodes>
            0 -1 23 -8.9468376245349646e-04</internalNodes>
          <leafValues>
            4.5104259252548218e-01 -1.1889997869729996e-01</leafValues></_>
        <_>
          <internalNodes>
            0 -1 202 1.2151427799835801e-03</internalNodes>
          <leafValues>
            -1.0813190788030624e-01 5.3457361459732056e-01</leafValues></_>
        <_>
          <internalNodes>
            0 -1 123 9.2112794518470764e-02</internalNodes>
          <leafValues>
            1.3093772530555725e-01 -5.0472885370254517e-01</leafValues></_>
        <_>
          <internalNodes>
            0 -1 162 -3.6644693464040756e-02</internalNodes>
          <leafValues>
            -4.9500936269760132e-01 1.3102605938911438e-01</leafValues></_>
        <_>
          <internalNodes>
            0 -1 10 -7.8291738033294678e-01</internalNodes>
          <leafValues>
            -7.4245601892471313e-01 8.8699154555797577e-02</leafValues></_>
        <_>
          <internalNodes>
            0 -1 53 -6.4482763409614563e-02</internalNodes>
          <leafValues>
            -1.1084207892417908e-01 7.7193200588226318e-01</leafValues></_>
        <_>
          <internalNodes>
            0 -1 12 1.6003478318452835e-02</internalNodes>
          <leafValues>
            1.2085440009832382e-01 -6.0942220687866211e-01</leafValues></_>
        <_>
          <internalNodes>
            0 -1 89 -4.4384651118889451e-04</internalNodes>
          <leafValues>
            4.7896671295166016e-01 -1.4339371025562286e-01</leafValues></_>
        <_>
          <internalNodes>
            0 -1 174 8.0490186810493469e-03</internalNodes>
          <leafValues>
            8.3860702812671661e-02 -7.8351533412933350e-01</leafValues></_>
        <_>
          <internalNodes>
            0 -1 36 -2.3938247561454773e-01</internalNodes>
          <leafValues>
            -6.2176191806793213e-01 9.2521667480468750e-02</leafValues></_>
        <_>
          <internalNodes>
            0 -1 46 -5.4492545314133167e-04</internalNodes>
          <leafValues>
            5.0724112987518311e-01 -1.1173165589570999e-01</leafValues></_>
        <_>
          <internalNodes>
            0 -1 142 -1.9130776636302471e-03</internalNodes>
          <leafValues>
            6.2914335727691650e-01 -7.6889246702194214e-02</leafValues></_>
        <_>
          <internalNodes>
            0 -1 142 2.0814544404856861e-04</internalNodes>
          <leafValues>
            -1.7617911100387573e-01 2.8735569119453430e-01</leafValues></_>
        <_>
          <internalNodes>
            0 -1 194 3.1889205274637789e-05</internalNodes>
          <leafValues>
            -1.2932886183261871e-01 4.2484846711158752e-01</leafValues></_></weakClassifiers></_>
    <!-- stage 5 -->
    <_>
      <maxWeakCount>27</maxWeakCount>
      <stageThreshold>-9.2103427648544312e-01</stageThreshold>
      <weakClassifiers>
        <_>
          <internalNodes>
            0 -1 78 -6.3382244110107422e-01</internalNodes>
          <leafValues>
            7.5958186388015747e-01 -5.7507988065481186e-02</leafValues></_>
        <_>
          <internalNodes>
            0 -1 8 -2.1901436150074005e-02</internalNodes>
          <leafValues>
            2.5234970450401306e-01 -4.4448876380920410e-01</leafValues></_>
        <_>
          <internalNodes>
            0 -1 234 -6.8476697197183967e-04</internalNodes>
          <leafValues>
            7.1305269002914429e-01 -1.2732699513435364e-01</leafValues></_>
        <_>
          <internalNodes>
            0 -1 165 -6.3512986525893211e-04</internalNodes>
          <leafValues>
            6.3140040636062622e-01 -1.5685866773128510e-01</leafValues></_>
        <_>
          <internalNodes>
            0 -1 74 1.8251288682222366e-02</internalNodes>
          <leafValues>
            1.7726060748100281e-01 -4.4036972522735596e-01</leafValues></_>
        <_>
          <internalNodes>
            0 -1 149 4.9199024215340614e-04</internalNodes>
          <leafValues>
            -1.2797720730304718e-01 6.0768586397171021e-01</leafValues></_>
        <_>
          <internalNodes>
            0 -1 179 -1.0497981682419777e-02</internalNodes>
          <leafValues>
            -9.1343730688095093e-02 6.7628151178359985e-01</leafValues></_>
        <_>
          <internalNodes>
            0 -1 166 3.8573541678488255e-04</internalNodes>
          <leafValues>
            -1.3955271244049072e-01 4.8728692531585693e-01</leafValues></_>
        <_>
          <internalNodes>
            0 -1 59 -3.2944784034043550e-03</internalNodes>
          <leafValues>
            -3.0864712595939636e-01 2.4581138789653778e-01</leafValues></_>
        <_>
          <internalNodes>
            0 -1 216 7.4802199378609657e-04</internalNodes>
          <leafValues>
            -1.1638635396957397e-01 6.5288883447647095e-01</leafValues></_>
        <_>
          <internalNodes>
            0 -1 193 6.9640879519283772e-04</internalNodes>
          <leafValues>
            -8.4273062646389008e-02 6.3312500715255737e-01</leafValues></_>
        <_>
          <internalNodes>
            0 -1 1 1.2499243021011353e-03</internalNodes>
          <leafValues>
            1.9686584174633026e-01 -3.1178295612335205e-01</leafValues></_>
        <_>
          <internalNodes>
            0 -1 68 -1.3689484912902117e-03</internalNodes>
          <leafValues>
            5.4776918888092041e-01 -1.0934210568666458e-01</leafValues></_>
        <_>
          <internalNodes>
            0 -1 247 1.1876969598233700e-02</internalNodes>
          <leafValues>
            9.8185367882251740e-02 -5.9485560655593872e-01</leafValues></_>
        <_>
          <internalNodes>
            0 -1 227 -1.2993073323741555e-03</internalNodes>
          <leafValues>
            3.6981257796287537e-01 -1.6465896368026733e-01</leafValues></_>
        <_>
          <internalNodes>
            0 -1 145 -2.8346581384539604e-02</internalNodes>
          <leafValues>
            -6.0020315647125244e-01 9.1200590133666992e-02</leafValues></_>
        <_>
          <internalNodes>
            0 -1 173 2.1054754033684731e-02</internalNodes>
          <leafValues>
            1.0064873099327087e-01 -5.4943054914474487e-01</leafValues></_>
        <_>
          <internalNodes>
            0 -1 113 9.1416074428707361e-04</internalNodes>
          <leafValues>
            -8.0523021519184113e-02 8.0942702293395996e-01</leafValues></_>
        <_>
          <internalNodes>
            0 -1 96 8.3072241395711899e-03</internalNodes>
          <leafValues>
            1.4517877995967865e-01 -3.9535561203956604e-01</leafValues></_>
        <_>
          <internalNodes>
            0 -1 128 4.8549874918535352e-04</internalNodes>
          <leafValues>
            -1.1617977917194366e-01 4.9041604995727539e-01</leafValues></_>
        <_>
          <internalNodes>
            0 -1 128 -4.4107894063927233e-04</internalNodes>
          <leafValues>
            4.9654337763786316e-01 -1.1306251585483551e-01</leafValues></_>
        <_>
          <internalNodes>
            0 -1 160 1.8942445516586304e-02</internalNodes>
          <leafValues>
            1.7693957686424255e-01 -3.8427346944808960e-01</leafValues></_>
        <_>
          <internalNodes>
            0 -1 248 1.0106677655130625e-03</internalNodes>
          <leafValues>
            -7.8321881592273712e-02 7.5847095251083374e-01</leafValues></_>
        <_>
          <internalNodes>
            0 -1 3 4.9084979109466076e-03</internalNodes>
          <leafValues>
            1.6004517674446106e-01 -3.5707864165306091e-01</leafValues></_>
        <_>
          <internalNodes>
            0 -1 220 -2.7706004679203033e-02</internalNodes>
          <leafValues>
            2.2649540007114410e-01 -2.1375709772109985e-01</leafValues></_>
        <_>
          <internalNodes>
            0 -1 98 7.5209718197584152e-03</internalNodes>
          <leafValues>
            9.2681773006916046e-02 -6.5176445245742798e-01</leafValues></_>
        <_>
          <internalNodes>
            0 -1 81 1.0409207083284855e-02</internalNodes>
          <leafValues>
            1.7986680567264557e-01 -2.9615119099617004e-01</leafValues></_></weakClassifiers></_>
    <!-- stage 6 -->
    <_>
      <maxWeakCount>23</maxWeakCount>
      <stageThreshold>-1.1741354465484619e+00</stageThreshold>
      <weakClassifiers>
        <_>
          <internalNodes>
            0 -1 228 -1.6022808849811554e-02</internalNodes>
          <leafValues>
            -8.1081083044409752e-03 8.8260871171951294e-01</leafValues></_>
        <_>
          <internalNodes>
            0 -1 35 -2.4994481354951859e-03</internalNodes>
          <leafValues>
            -2.9046279191970825e-01 3.1386211514472961e-01</leafValues></_>
        <_>
          <internalNodes>
            0 -1 244 -7.0631891489028931e-02</internalNodes>
          <leafValues>
            -1.2000528723001480e-01 7.7750164270401001e-01</leafValues></_>
        <_>
          <internalNodes>
            0 -1 237 -1.7527730669826269e-03</internalNodes>
          <leafValues>
            6.8580943346023560e-01 -1.4147730171680450e-01</leafValues></_>
        <_>
          <internalNodes>
            0 -1 239 5.1269063260406256e-04</internalNodes>
          <leafValues>
            -1.6353222727775574e-01 5.9128373861312866e-01</leafValues></_>
        <_>
          <internalNodes>
            0 -1 108 1.2135942233726382e-03</internalNodes>
          <leafValues>
            -1.1251705884933472e-01 6.2663435935974121e-01</leafValues></_>
        <_>
          <internalNodes>
            0 -1 190 1.4135240344330668e-03</internalNodes>
          <leafValues>
            -7.4209965765476227e-02 6.6926723718643188e-01</leafValues></_>
        <_>
          <internalNodes>
            0 -1 191 -6.8538787309080362e-04</internalNodes>
          <leafValues>
            6.2281674146652222e-01 -1.2683260440826416e-01</leafValues></_>
        <_>
          <internalNodes>
            0 -1 131 -3.5164601285941899e-05</internalNodes>
          <leafValues>
            4.5517882704734802e-01 -1.7691498994827271e-01</leafValues></_>
        <_>
          <internalNodes>
            0 -1 168 2.1646708773914725e-04</internalNodes>
          <leafValues>
            -1.7625065147876740e-01 4.3367633223533630e-01</leafValues></_>
        <_>
          <internalNodes>
            0 -1 88 1.4752219431102276e-03</internalNodes>
          <leafValues>
            -7.6812773942947388e-02 8.1595945358276367e-01</leafValues></_>
        <_>
          <internalNodes>
            0 -1 126 -1.0215950896963477e-04</internalNodes>
          <leafValues>
            4.1779461503028870e-01 -1.6684713959693909e-01</leafValues></_>
        <_>
          <internalNodes>
            0 -1 171 9.5840422436594963e-03</internalNodes>
          <leafValues>
            1.6427695751190186e-01 -4.0820884704589844e-01</leafValues></_>
        <_>
          <internalNodes>
            0 -1 115 7.2568823816254735e-04</internalNodes>
          <leafValues>
            -1.0025405883789062e-01 6.9058728218078613e-01</leafValues></_>
        <_>
          <internalNodes>
            0 -1 218 -1.7808952834457159e-03</internalNodes>
          <leafValues>
            6.6819947957992554e-01 -8.9206553995609283e-02</leafValues></_>
        <_>
          <internalNodes>
            0 -1 226 2.2035194560885429e-03</internalNodes>
          <leafValues>
            -9.4934932887554169e-02 6.8017590045928955e-01</leafValues></_>
        <_>
          <internalNodes>
            0 -1 21 6.1752721667289734e-03</internalNodes>
          <leafValues>
            1.1971264332532883e-01 -6.6117328405380249e-01</leafValues></_>
        <_>
          <internalNodes>
            0 -1 143 3.4457445144653320e-03</internalNodes>
          <leafValues>
            -9.2891559004783630e-02 7.8949320316314697e-01</leafValues></_>
        <_>
          <internalNodes>
            0 -1 84 1.1929979920387268e-01</internalNodes>
          <leafValues>
            1.1655511707067490e-01 -7.1919065713882446e-01</leafValues></_>
        <_>
          <internalNodes>
            0 -1 233 1.6979475039988756e-03</internalNodes>
          <leafValues>
            -1.0379665344953537e-01 7.3786747455596924e-01</leafValues></_>
        <_>
          <internalNodes>
            0 -1 200 5.0205318984808400e-05</internalNodes>
          <leafValues>
            -1.2092466652393341e-01 5.4261767864227295e-01</leafValues></_>
        <_>
          <internalNodes>
            0 -1 192 1.3343950267881155e-03</internalNodes>
          <leafValues>
            -1.1189775913953781e-01 5.7038700580596924e-01</leafValues></_>
        <_>
          <internalNodes>
            0 -1 132 5.3553725592792034e-04</internalNodes>
          <leafValues>
            -9.2970497906208038e-02 6.5168255567550659e-01</leafValues></_></weakClassifiers></_>
    <!-- stage 7 -->
    <_>
      <maxWeakCount>36</maxWeakCount>
      <stageThreshold>-8.9342558383941650e-01</stageThreshold>
      <weakClassifiers>
        <_>
          <internalNodes>
            0 -1 94 -5.3206190466880798e-02</internalNodes>
          <leafValues>
            5.3450292348861694e-01 -1.6521738469600677e-01</leafValues></_>
        <_>
          <internalNodes>
            0 -1 6 1.4701068866997957e-03</internalNodes>
          <leafValues>
            -2.3334014415740967e-01 3.2463809847831726e-01</leafValues></_>
        <_>
          <internalNodes>
            0 -1 5 1.2454371899366379e-02</internalNodes>
          <leafValues>
            9.0287461876869202e-02 -6.9207888841629028e-01</leafValues></_>
        <_>
          <internalNodes>
            0 -1 97 -4.5281872153282166e-02</internalNodes>
          <leafValues>
            6.0064691305160522e-01 -1.0624714940786362e-01</leafValues></_>
        <_>
          <internalNodes>
            0 -1 17 -1.1674083024263382e-01</internalNodes>
          <leafValues>
            2.6071968674659729e-01 -2.5539866089820862e-01</leafValues></_>
        <_>
          <internalNodes>
            0 -1 209 -1.2422476708889008e-01</internalNodes>
          <leafValues>
            4.4245141744613647e-01 -1.2139850854873657e-01</leafValues></_>
        <_>
          <internalNodes>
            0 -1 136 3.5799395292997360e-02</internalNodes>
          <leafValues>
            1.2672702968120575e-01 -4.4042319059371948e-01</leafValues></_>
        <_>
          <internalNodes>
            0 -1 87 -2.7082560583949089e-02</internalNodes>
          <leafValues>
            -9.2496597766876221e-01 3.5919528454542160e-02</leafValues></_>
        <_>
          <internalNodes>
            0 -1 154 -2.2169975563883781e-03</internalNodes>
          <leafValues>
            5.1551270484924316e-01 -1.1445831507444382e-01</leafValues></_>
        <_>
          <internalNodes>
            0 -1 90 -1.0849499143660069e-02</internalNodes>
          <leafValues>
            1.7219679057598114e-01 -3.0693122744560242e-01</leafValues></_>
        <_>
          <internalNodes>
            0 -1 169 -2.6643893215805292e-03</internalNodes>
          <leafValues>
            3.5436266660690308e-01 -1.2324678897857666e-01</leafValues></_>
        <_>
          <internalNodes>
            0 -1 2 -3.9130644872784615e-03</internalNodes>
          <leafValues>
            -2.6053807139396667e-01 1.7557351291179657e-01</leafValues></_>
        <_>
          <internalNodes>
            0 -1 4 3.9602367905899882e-04</internalNodes>
          <leafValues>
            1.2594480812549591e-01 -3.4048020839691162e-01</leafValues></_>
        <_>
          <internalNodes>
            0 -1 232 -1.4647773932665586e-03</internalNodes>
          <leafValues>
            5.0083023309707642e-01 -9.0811893343925476e-02</leafValues></_>
        <_>
          <internalNodes>
            0 -1 40 -8.4053628146648407e-02</internalNodes>
          <leafValues>
            -5.0718545913696289e-01 8.9231684803962708e-02</leafValues></_>
        <_>
          <internalNodes>
            0 -1 199 -1.3864599168300629e-03</internalNodes>
          <leafValues>
            3.6520656943321228e-01 -1.1410124599933624e-01</leafValues></_>
        <_>
          <internalNodes>
            0 -1 197 1.1361641809344292e-02</internalNodes>
          <leafValues>
            9.3182735145092010e-02 -4.6851968765258789e-01</leafValues></_>
        <_>
          <internalNodes>
            0 -1 147 7.5895222835242748e-04</internalNodes>
          <leafValues>
            -2.0556141436100006e-01 2.6127010583877563e-01</leafValues></_>
        <_>
          <internalNodes>
            0 -1 245 5.6779169244691730e-04</internalNodes>
          <leafValues>
            -1.1339569836854935e-01 4.1016983985900879e-01</leafValues></_>
        <_>
          <internalNodes>
            0 -1 177 -2.8174424171447754e-01</internalNodes>
          <leafValues>
            3.4992310404777527e-01 -1.1138910055160522e-01</leafValues></_>
        <_>
          <internalNodes>
            0 -1 80 -1.1439084261655807e-01</internalNodes>
          <leafValues>
            3.9256605505943298e-01 -1.1465683579444885e-01</leafValues></_>
        <_>
          <internalNodes>
            0 -1 135 -7.1262754499912262e-03</internalNodes>
          <leafValues>
            3.3707970380783081e-01 -1.2228597700595856e-01</leafValues></_>
        <_>
          <internalNodes>
            0 -1 18 6.8178938818164170e-05</internalNodes>
          <leafValues>
            -1.2743310630321503e-01 3.0950585007667542e-01</leafValues></_>
        <_>
          <internalNodes>
            0 -1 109 -2.0743459463119507e-01</internalNodes>
          <leafValues>
            4.8035466670989990e-01 -9.6739403903484344e-02</leafValues></_>
        <_>
          <internalNodes>
            0 -1 42 -1.0646950453519821e-02</internalNodes>
          <leafValues>
            4.5527104288339615e-02 -8.6722689867019653e-01</leafValues></_>
        <_>
          <internalNodes>
            0 -1 111 -3.7405669689178467e-02</internalNodes>
          <leafValues>
            -9.5414176583290100e-02 4.7216948866844177e-01</leafValues></_>
        <_>
          <internalNodes>
            0 -1 33 -4.2565368115901947e-02</internalNodes>
          <leafValues>
            2.1048685908317566e-01 -2.1226051449775696e-01</leafValues></_>
        <_>
          <internalNodes>
            0 -1 104 -1.2137944577261806e-04</internalNodes>
          <leafValues>
            2.7027335762977600e-01 -1.4516440033912659e-01</leafValues></_>
        <_>
          <internalNodes>
            0 -1 188 -3.1675042118877172e-03</internalNodes>
          <leafValues>
            5.9707951545715332e-01 -6.7928262054920197e-02</leafValues></_>
        <_>
          <internalNodes>
            0 -1 105 1.8808085471391678e-02</internalNodes>
          <leafValues>
            6.3485272228717804e-02 -7.2371315956115723e-01</leafValues></_>
        <_>
          <internalNodes>
            0 -1 155 -4.7117108479142189e-03</internalNodes>
          <leafValues>
            -1.9536297023296356e-01 2.1120491623878479e-01</leafValues></_>
        <_>
          <internalNodes>
            0 -1 251 -9.3850819393992424e-03</internalNodes>
          <leafValues>
            6.3872438669204712e-01 -6.2690429389476776e-02</leafValues></_>
        <_>
          <internalNodes>
            0 -1 22 -3.1114159151911736e-02</internalNodes>
          <leafValues>
            2.8473296761512756e-01 -1.3967314362525940e-01</leafValues></_>
        <_>
          <internalNodes>
            0 -1 32 7.8023667447268963e-04</internalNodes>
          <leafValues>
            6.4315780997276306e-02 -6.2255173921585083e-01</leafValues></_>
        <_>
          <internalNodes>
            0 -1 67 1.0917240753769875e-02</internalNodes>
          <leafValues>
            -5.8683291077613831e-02 7.6730704307556152e-01</leafValues></_>
        <_>
          <internalNodes>
            0 -1 184 -5.4999347776174545e-03</internalNodes>
          <leafValues>
            -7.5412154197692871e-01 6.5103001892566681e-02</leafValues></_></weakClassifiers></_>
    <!-- stage 8 -->
    <_>
      <maxWeakCount>37</maxWeakCount>
      <stageThreshold>-7.2444260120391846e-01</stageThreshold>
      <weakClassifiers>
        <_>
          <internalNodes>
            0 -1 159 -3.1975898146629333e-01</internalNodes>
          <leafValues>
            6.4874553680419922e-01 5.9190031141042709e-02</leafValues></_>
        <_>
          <internalNodes>
            0 -1 238 -3.4599609673023224e-02</internalNodes>
          <leafValues>
            -7.6432734727859497e-02 7.4988746643066406e-01</leafValues></_>
        <_>
          <internalNodes>
            0 -1 6 7.8860446810722351e-03</internalNodes>
          <leafValues>
            -2.4904768168926239e-01 3.1653207540512085e-01</leafValues></_>
        <_>
          <internalNodes>
            0 -1 100 2.2483961656689644e-02</internalNodes>
          <leafValues>
            1.1122752726078033e-01 -4.2575678229331970e-01</leafValues></_>
        <_>
          <internalNodes>
            0 -1 9 -8.6863744258880615e-01</internalNodes>
          <leafValues>
            -7.7388185262680054e-01 5.3765773773193359e-02</leafValues></_>
        <_>
          <internalNodes>
            0 -1 62 -6.5027331002056599e-03</internalNodes>
          <leafValues>
            1.2896621227264404e-01 -3.6435952782630920e-01</leafValues></_>
        <_>
          <internalNodes>
            0 -1 64 3.2614818774163723e-03</internalNodes>
          <leafValues>
            1.6285285353660583e-01 -2.5423726439476013e-01</leafValues></_>
        <_>
          <internalNodes>
            0 -1 130 -3.0740696936845779e-02</internalNodes>
          <leafValues>
            -6.0857273638248444e-02 6.8754500150680542e-01</leafValues></_>
        <_>
          <internalNodes>
            0 -1 44 -3.6268079280853271e-01</internalNodes>
          <leafValues>
            4.6168718487024307e-02 -7.6945203542709351e-01</leafValues></_>
        <_>
          <internalNodes>
            0 -1 129 -2.6600778102874756e-02</internalNodes>
          <leafValues>
            -3.0789690092206001e-02 7.7988308668136597e-01</leafValues></_>
        <_>
          <internalNodes>
            0 -1 121 -1.7850489821285009e-03</internalNodes>
          <leafValues>
            3.6069622635841370e-01 -1.1670918017625809e-01</leafValues></_>
        <_>
          <internalNodes>
            0 -1 65 -1.3515811413526535e-02</internalNodes>
          <leafValues>
            4.8067712783813477e-01 -9.5726095139980316e-02</leafValues></_>
        <_>
          <internalNodes>
            0 -1 48 -4.2253617721144110e-05</internalNodes>
          <leafValues>
            -1.9071027636528015e-01 2.2136092185974121e-01</leafValues></_>
        <_>
          <internalNodes>
            0 -1 167 -1.3863985426723957e-02</internalNodes>
          <leafValues>
            8.3565425872802734e-01 -4.0669571608304977e-02</leafValues></_>
        <_>
          <internalNodes>
            0 -1 139 -7.5434800237417221e-04</internalNodes>
          <leafValues>
            5.0654482841491699e-01 -6.0869418084621429e-02</leafValues></_>
        <_>
          <internalNodes>
            0 -1 175 -7.2405813261866570e-03</internalNodes>
          <leafValues>
            -4.8236650228500366e-01 7.8759253025054932e-02</leafValues></_>
        <_>
          <internalNodes>
            0 -1 223 -5.5282114772126079e-04</internalNodes>
          <leafValues>
            4.2069163918495178e-01 -9.8428219556808472e-02</leafValues></_>
        <_>
          <internalNodes>
            0 -1 240 -8.9232039451599121e-01</internalNodes>
          <leafValues>
            -6.8980681896209717e-01 5.6241448968648911e-02</leafValues></_>
        <_>
          <internalNodes>
            0 -1 102 2.3041483946144581e-03</internalNodes>
          <leafValues>
            -7.0014961063861847e-02 5.7989430427551270e-01</leafValues></_>
        <_>
          <internalNodes>
            0 -1 225 3.5612094216048717e-03</internalNodes>
          <leafValues>
            9.4574995338916779e-02 -4.7691103816032410e-01</leafValues></_>
        <_>
          <internalNodes>
            0 -1 93 -3.7673460319638252e-03</internalNodes>
          <leafValues>
            -3.5087612271308899e-01 1.0168156772851944e-01</leafValues></_>
        <_>
          <internalNodes>
            0 -1 29 -1.3775649131275713e-04</internalNodes>
          <leafValues>
            -2.0102071762084961e-01 1.9661119580268860e-01</leafValues></_>
        <_>
          <internalNodes>
            0 -1 186 -5.3761716932058334e-02</internalNodes>
          <leafValues>
            -7.2004431486129761e-01 4.7631211578845978e-02</leafValues></_>
        <_>
          <internalNodes>
            0 -1 151 1.7497520893812180e-02</internalNodes>
          <leafValues>
            9.7114451229572296e-02 -3.8136178255081177e-01</leafValues></_>
        <_>
          <internalNodes>
            0 -1 122 -4.7436455497518182e-04</internalNodes>
          <leafValues>
            4.0541878342628479e-01 -9.2523619532585144e-02</leafValues></_>
        <_>
          <internalNodes>
            0 -1 246 -4.5409607701003551e-03</internalNodes>
          <leafValues>
            -3.9852133393287659e-01 9.1446511447429657e-02</leafValues></_>
        <_>
          <internalNodes>
            0 -1 221 -1.1097087990492582e-03</internalNodes>
          <leafValues>
            3.4743386507034302e-01 -1.1201822012662888e-01</leafValues></_>
        <_>
          <internalNodes>
            0 -1 83 -8.2764346152544022e-03</internalNodes>
          <leafValues>
            -7.9486948251724243e-01 5.3075589239597321e-02</leafValues></_>
        <_>
          <internalNodes>
            0 -1 118 -2.4915777612477541e-04</internalNodes>
          <leafValues>
            3.1481882929801941e-01 -1.3041163980960846e-01</leafValues></_>
        <_>
          <internalNodes>
            0 -1 146 -3.4037575125694275e-02</internalNodes>
          <leafValues>
            -5.5821675062179565e-01 7.3683291673660278e-02</leafValues></_>
        <_>
          <internalNodes>
            0 -1 39 -5.0467319786548615e-02</internalNodes>
          <leafValues>
            2.1164396405220032e-01 -1.8073050677776337e-01</leafValues></_>
        <_>
          <internalNodes>
            0 -1 127 1.8272132147103548e-03</internalNodes>
          <leafValues>
            -1.1142276972532272e-01 3.6097484827041626e-01</leafValues></_>
        <_>
          <internalNodes>
            0 -1 158 3.8760616444051266e-03</internalNodes>
          <leafValues>
            -1.5767164528369904e-01 2.2426566481590271e-01</leafValues></_>
        <_>
          <internalNodes>
            0 -1 148 2.8192795813083649e-02</internalNodes>
          <leafValues>
            1.2041619420051575e-01 -3.2280883193016052e-01</leafValues></_>
        <_>
          <internalNodes>
            0 -1 161 1.3716076500713825e-03</internalNodes>
          <leafValues>
            -9.0104080736637115e-02 5.7348424196243286e-01</leafValues></_>
        <_>
          <internalNodes>
            0 -1 201 -5.2409758791327477e-03</internalNodes>
          <leafValues>
            -4.8417857289314270e-01 9.1498874127864838e-02</leafValues></_>
        <_>
          <internalNodes>
            0 -1 60 -6.8960164207965136e-04</internalNodes>
          <leafValues>
            2.8579398989677429e-01 -1.5319961309432983e-01</leafValues></_></weakClassifiers></_>
    <!-- stage 9 -->
    <_>
      <maxWeakCount>34</maxWeakCount>
      <stageThreshold>-8.9255601167678833e-01</stageThreshold>
      <weakClassifiers>
        <_>
          <internalNodes>
            0 -1 107 -7.3540015146136284e-03</internalNodes>
          <leafValues>
            4.6625766158103943e-01 -2.5225225090980530e-01</leafValues></_>
        <_>
          <internalNodes>
            0 -1 91 -6.1689168214797974e-01</internalNodes>
          <leafValues>
            4.7838532924652100e-01 -1.3097123801708221e-01</leafValues></_>
        <_>
          <internalNodes>
            0 -1 176 6.3276151195168495e-04</internalNodes>
          <leafValues>
            -1.0778532177209854e-01 6.8124097585678101e-01</leafValues></_>
        <_>
          <internalNodes>
            0 -1 86 7.4744352605193853e-04</internalNodes>
          <leafValues>
            -9.4383552670478821e-02 7.0733326673507690e-01</leafValues></_>
        <_>
          <internalNodes>
            0 -1 203 -1.1101398849859834e-03</internalNodes>
          <leafValues>
            7.7300536632537842e-01 -7.2009451687335968e-02</leafValues></_>
        <_>
          <internalNodes>
            0 -1 198 -5.2986334776505828e-04</internalNodes>
          <leafValues>
            5.4938608407974243e-01 -1.0001134872436523e-01</leafValues></_>
        <_>
          <internalNodes>
            0 -1 24 -1.1754393577575684e+00</internalNodes>
          <leafValues>
            -6.8183511495590210e-01 9.8795503377914429e-02</leafValues></_>
        <_>
          <internalNodes>
            0 -1 229 -3.5319066955707967e-04</internalNodes>
          <leafValues>
            4.0118530392646790e-01 -1.4921101927757263e-01</leafValues></_>
        <_>
          <internalNodes>
            0 -1 115 5.9064204106107354e-04</internalNodes>
          <leafValues>
            -9.8497845232486725e-02 4.9370157718658447e-01</leafValues></_>
        <_>
          <internalNodes>
            0 -1 243 5.4426083806902170e-04</internalNodes>
          <leafValues>
            -9.0536385774612427e-02 4.8532876372337341e-01</leafValues></_>
        <_>
          <internalNodes>
            0 -1 82 -3.6371983587741852e-02</internalNodes>
          <leafValues>
            -4.8457634449005127e-01 1.0369933396577835e-01</leafValues></_>
        <_>
          <internalNodes>
            0 -1 217 -6.0662429314106703e-04</internalNodes>
          <leafValues>
            4.6684068441390991e-01 -1.0225093364715576e-01</leafValues></_>
        <_>
          <internalNodes>
            0 -1 147 7.2507178410887718e-03</internalNodes>
          <leafValues>
            1.1251691728830338e-01 -4.8364898562431335e-01</leafValues></_>
        <_>
          <internalNodes>
            0 -1 124 -8.4568490274250507e-04</internalNodes>
          <leafValues>
            6.2383568286895752e-01 -8.2975916564464569e-02</leafValues></_>
        <_>
          <internalNodes>
            0 -1 205 2.4302724748849869e-02</internalNodes>
          <leafValues>
            8.7046660482883453e-02 -5.8279800415039062e-01</leafValues></_>
        <_>
          <internalNodes>
            0 -1 248 5.8254750911146402e-04</internalNodes>
          <leafValues>
            -1.0870546102523804e-01 4.2984378337860107e-01</leafValues></_>
        <_>
          <internalNodes>
            0 -1 50 9.5126908272504807e-03</internalNodes>
          <leafValues>
            1.3496938347816467e-01 -3.1487059593200684e-01</leafValues></_>
        <_>
          <internalNodes>
            0 -1 178 -7.1794196963310242e-02</internalNodes>
          <leafValues>
            -6.3446474075317383e-01 7.0385582745075226e-02</leafValues></_>
        <_>
          <internalNodes>
            0 -1 124 6.9712247932329774e-04</internalNodes>
          <leafValues>
            -8.9403554797172546e-02 5.6886273622512817e-01</leafValues></_>
        <_>
          <internalNodes>
            0 -1 20 1.7717391892801970e-04</internalNodes>
          <leafValues>
            -1.4263935387134552e-01 3.8952931761741638e-01</leafValues></_>
        <_>
          <internalNodes>
            0 -1 182 6.5618677763268352e-04</internalNodes>
          <leafValues>
            -1.4061515033245087e-01 3.4023270010948181e-01</leafValues></_>
        <_>
          <internalNodes>
            0 -1 30 2.8623500838875771e-03</internalNodes>
          <leafValues>
            1.1915883421897888e-01 -4.3116942048072815e-01</leafValues></_>
        <_>
          <internalNodes>
            0 -1 204 -4.5766902621835470e-04</internalNodes>
          <leafValues>
            4.7398611903190613e-01 -1.0740390419960022e-01</leafValues></_>
        <_>
          <internalNodes>
            0 -1 241 5.6727761402726173e-03</internalNodes>
          <leafValues>
            1.2947802245616913e-01 -3.3942896127700806e-01</leafValues></_>
        <_>
          <internalNodes>
            0 -1 92 -1.2464202940464020e-02</internalNodes>
          <leafValues>
            -5.5231463909149170e-01 7.3300868272781372e-02</leafValues></_>
        <_>
          <internalNodes>
            0 -1 180 2.0085051655769348e-03</internalNodes>
          <leafValues>
            -6.8179167807102203e-02 6.4422965049743652e-01</leafValues></_>
        <_>
          <internalNodes>
            0 -1 213 -7.5462833046913147e-04</internalNodes>
          <leafValues>
            6.0245531797409058e-01 -6.4068615436553955e-02</leafValues></_>
        <_>
          <internalNodes>
            0 -1 117 3.9677964523434639e-03</internalNodes>
          <leafValues>
            1.4352296292781830e-01 -2.9175379872322083e-01</leafValues></_>
        <_>
          <internalNodes>
            0 -1 185 -6.1161518096923828e-02</internalNodes>
          <leafValues>
            -5.8679479360580444e-01 6.9566741585731506e-02</leafValues></_>
        <_>
          <internalNodes>
            0 -1 163 -2.9730843380093575e-04</internalNodes>
          <leafValues>
            3.9495176076889038e-01 -1.1825785785913467e-01</leafValues></_>
        <_>
          <internalNodes>
            0 -1 144 -6.5106980036944151e-04</internalNodes>
          <leafValues>
            4.3850296735763550e-01 -8.8064335286617279e-02</leafValues></_>
        <_>
          <internalNodes>
            0 -1 242 4.8244330100715160e-03</internalNodes>
          <leafValues>
            9.6613980829715729e-02 -4.6986660361289978e-01</leafValues></_>
        <_>
          <internalNodes>
            0 -1 164 -2.3599574342370033e-03</internalNodes>
          <leafValues>
            8.2054579257965088e-01 -5.6524533778429031e-02</leafValues></_>
        <_>
          <internalNodes>
            0 -1 110 3.0770522425882518e-04</internalNodes>
          <leafValues>
            -1.3075548410415649e-01 3.0983597040176392e-01</leafValues></_></weakClassifiers></_></stages>
  <features>
    <_>
      <rects>
        <_>
          0 0 1 6 -1.</_>
        <_>
          0 2 1 2 2.</_></rects>
      <tilted>0</tilted></_>
    <_>
      <rects>
        <_>
          0 0 2 4 -1.</_>
        <_>
          1 0 1 4 2.</_></rects>
      <tilted>0</tilted></_>
    <_>
      <rects>
        <_>
          0 0 2 6 -1.</_>
        <_>
          0 3 2 3 2.</_></rects>
      <tilted>0</tilted></_>
    <_>
      <rects>
        <_>
          0 0 6 2 -1.</_>
        <_>
          3 0 3 2 2.</_></rects>
      <tilted>0</tilted></_>
    <_>
      <rects>
        <_>
          0 0 6 4 -1.</_>
        <_>
          0 2 6 2 2.</_></rects>
      <tilted>0</tilted></_>
    <_>
      <rects>
        <_>
          0 0 6 8 -1.</_>
        <_>
          0 4 6 4 2.</_></rects>
      <tilted>0</tilted></_>
    <_>
      <rects>
        <_>
          0 0 20 1 -1.</_>
        <_>
          10 0 10 1 2.</_></rects>
      <tilted>0</tilted></_>
    <_>
      <rects>
        <_>
          0 0 15 20 -1.</_>
        <_>
          0 10 15 10 2.</_></rects>
      <tilted>0</tilted></_>
    <_>
      <rects>
        <_>
          0 0 17 8 -1.</_>
        <_>
          0 4 17 4 2.</_></rects>
      <tilted>0</tilted></_>
    <_>
      <rects>
        <_>
          0 0 17 20 -1.</_>
        <_>
          0 10 17 10 2.</_></rects>
      <tilted>0</tilted></_>
    <_>
      <rects>
        <_>
          0 1 19 18 -1.</_>
        <_>
          0 10 19 9 2.</_></rects>
      <tilted>0</tilted></_>
    <_>
      <rects>
        <_>
          0 2 1 18 -1.</_>
        <_>
          0 8 1 6 2.</_></rects>
      <tilted>0</tilted></_>
    <_>
      <rects>
        <_>
          0 2 3 10 -1.</_>
        <_>
          0 7 3 5 2.</_></rects>
      <tilted>0</tilted></_>
    <_>
      <rects>
        <_>
          0 2 10 18 -1.</_>
        <_>
          5 2 5 18 2.</_></rects>
      <tilted>0</tilted></_>
    <_>
      <rects>
        <_>
          0 4 3 3 -1.</_>
        <_>
          0 5 3 1 2.</_></rects>
      <tilted>0</tilted></_>
    <_>
      <rects>
        <_>
          0 5 2 7 -1.</_>
        <_>
          1 5 1 7 2.</_></rects>
      <tilted>0</tilted></_>
    <_>
      <rects>
        <_>
          0 5 12 14 -1.</_>
        <_>
          0 5 6 7 2.</_>
        <_>
          6 12 6 7 2.</_></rects>
      <tilted>0</tilted></_>
    <_>
      <rects>
        <_>
          0 5 14 11 -1.</_>
        <_>
          7 5 7 11 2.</_></rects>
      <tilted>0</tilted></_>
    <_>
      <rects>
        <_>
          0 6 1 6 -1.</_>
        <_>
          0 9 1 3 2.</_></rects>
      <tilted>0</tilted></_>
    <_>
      <rects>
        <_>
          0 6 2 3 -1.</_>
        <_>
          0 7 2 1 2.</_></rects>
      <tilted>0</tilted></_>
    <_>
      <rects>
        <_>
          0 7 1 12 -1.</_>
        <_>
          0 13 1 6 2.</_></rects>
      <tilted>0</tilted></_>
    <_>
      <rects>
        <_>
          0 9 1 10 -1.</_>
        <_>
          0 14 1 5 2.</_></rects>
      <tilted>0</tilted></_>
    <_>
      <rects>
        <_>
          0 9 19 4 -1.</_>
        <_>
          0 11 19 2 2.</_></rects>
      <tilted>0</tilted></_>
    <_>
      <rects>
        <_>
          0 11 2 4 -1.</_>
        <_>
          0 11 1 2 2.</_>
        <_>
          1 13 1 2 2.</_></rects>
      <tilted>0</tilted></_>
    <_>
      <rects>
        <_>
          0 11 15 2 -1.</_>
        <_>
          5 11 5 2 2.</_></rects>
      <tilted>0</tilted></_>
    <_>
      <rects>
        <_>
          0 12 1 4 -1.</_>
        <_>
          0 14 1 2 2.</_></rects>
      <tilted>0</tilted></_>
    <_>
      <rects>
        <_>
          0 12 10 8 -1.</_>
        <_>
          0 12 5 4 2.</_>
        <_>
          5 16 5 4 2.</_></rects>
      <tilted>0</tilted></_>
    <_>
      <rects>
        <_>
          0 15 1 4 -1.</_>
        <_>
          0 17 1 2 2.</_></rects>
      <tilted>0</tilted></_>
    <_>
      <rects>
        <_>
          0 15 3 3 -1.</_>
        <_>
          0 16 3 1 2.</_></rects>
      <tilted>0</tilted></_>
    <_>
      <rects>
        <_>
          0 16 1 2 -1.</_>
        <_>
          0 17 1 1 2.</_></rects>
      <tilted>0</tilted></_>
    <_>
      <rects>
        <_>
          0 16 6 4 -1.</_>
        <_>
          0 18 6 2 2.</_></rects>
      <tilted>0</tilted></_>
    <_>
      <rects>
        <_>
          0 16 10 4 -1.</_>
        <_>
          0 18 10 2 2.</_></rects>
      <tilted>0</tilted></_>
    <_>
      <rects>
        <_>
          1 0 1 2 -1.</_>
        <_>
          1 1 1 1 2.</_></rects>
      <tilted>0</tilted></_>
    <_>
      <rects>
        <_>
          1 0 1 6 -1.</_>
        <_>
          1 2 1 2 2.</_></rects>
      <tilted>0</tilted></_>
    <_>
      <rects>
        <_>
          1 0 9 1 -1.</_>
        <_>
          4 0 3 1 2.</_></rects>
      <tilted>0</tilted></_>
    <_>
      <rects>
        <_>
          1 0 12 1 -1.</_>
        <_>
          7 0 6 1 2.</_></rects>
      <tilted>0</tilted></_>
    <_>
      <rects>
        <_>
          1 0 19 10 -1.</_>
        <_>
          1 5 19 5 2.</_></rects>
      <tilted>0</tilted></_>
    <_>
      <rects>
        <_>
          1 0 19 20 -1.</_>
        <_>
          1 10 19 10 2.</_></rects>
      <tilted>0</tilted></_>
    <_>
      <rects>
        <_>
          1 1 1 3 -1.</_>
        <_>
          1 2 1 1 2.</_></rects>
      <tilted>0</tilted></_>
    <_>
      <rects>
        <_>
          1 2 16 16 -1.</_>
        <_>
          1 2 8 8 2.</_>
        <_>
          9 10 8 8 2.</_></rects>
      <tilted>0</tilted></_>
    <_>
      <rects>
        <_>
          1 3 14 10 -1.</_>
        <_>
          1 3 7 5 2.</_>
        <_>
          8 8 7 5 2.</_></rects>
      <tilted>0</tilted></_>
    <_>
      <rects>
        <_>
          1 4 7 4 -1.</_>
        <_>
          1 6 7 2 2.</_></rects>
      <tilted>0</tilted></_>
    <_>
      <rects>
        <_>
          1 6 3 1 -1.</_>
        <_>
          2 6 1 1 2.</_></rects>
      <tilted>0</tilted></_>
    <_>
      <rects>
        <_>
          1 7 8 11 -1.</_>
        <_>
          5 7 4 11 2.</_></rects>
      <tilted>0</tilted></_>
    <_>
      <rects>
        <_>
          1 8 15 7 -1.</_>
        <_>
          6 8 5 7 2.</_></rects>
      <tilted>0</tilted></_>
    <_>
      <rects>
        <_>
          1 8 19 4 -1.</_>
        <_>
          1 10 19 2 2.</_></rects>
      <tilted>0</tilted></_>
    <_>
      <rects>
        <_>
          1 9 2 2 -1.</_>
        <_>
          1 9 1 1 2.</_>
        <_>
          2 10 1 1 2.</_></rects>
      <tilted>0</tilted></_>
    <_>
      <rects>
        <_>
          1 10 12 10 -1.</_>
        <_>
          1 15 12 5 2.</_></rects>
      <tilted>0</tilted></_>
    <_>
      <rects>
        <_>
          1 18 1 2 -1.</_>
        <_>
          1 19 1 1 2.</_></rects>
      <tilted>0</tilted></_>
    <_>
      <rects>
        <_>
          2 0 2 14 -1.</_>
        <_>
          2 0 1 7 2.</_>
        <_>
          3 7 1 7 2.</_></rects>
      <tilted>0</tilted></_>
    <_>
      <rects>
        <_>
          2 0 6 4 -1.</_>
        <_>
          5 0 3 4 2.</_></rects>
      <tilted>0</tilted></_>
    <_>
      <rects>
        <_>
          2 0 14 20 -1.</_>
        <_>
          2 10 14 10 2.</_></rects>
      <tilted>0</tilted></_>
    <_>
      <rects>
        <_>
          2 4 10 16 -1.</_>
        <_>
          2 4 5 8 2.</_>
        <_>
          7 12 5 8 2.</_></rects>
      <tilted>0</tilted></_>
    <_>
      <rects>
        <_>
          2 10 12 1 -1.</_>
        <_>
          6 10 4 1 2.</_></rects>
      <tilted>0</tilted></_>
    <_>
      <rects>
        <_>
          2 10 12 9 -1.</_>
        <_>
          2 13 12 3 2.</_></rects>
      <tilted>0</tilted></_>
    <_>
      <rects>
        <_>
          2 11 1 9 -1.</_>
        <_>
          2 14 1 3 2.</_></rects>
      <tilted>0</tilted></_>
    <_>
      <rects>
        <_>
          2 12 18 8 -1.</_>
        <_>
          2 16 18 4 2.</_></rects>
      <tilted>0</tilted></_>
    <_>
      <rects>
        <_>
          3 0 2 10 -1.</_>
        <_>
          3 5 2 5 2.</_></rects>
      <tilted>0</tilted></_>
    <_>
      <rects>
        <_>
          3 0 8 7 -1.</_>
        <_>
          7 0 4 7 2.</_></rects>
      <tilted>0</tilted></_>
    <_>
      <rects>
        <_>
          3 0 16 1 -1.</_>
        <_>
          11 0 8 1 2.</_></rects>
      <tilted>0</tilted></_>
    <_>
      <rects>
        <_>
          3 2 2 2 -1.</_>
        <_>
          4 2 1 2 2.</_></rects>
      <tilted>0</tilted></_>
    <_>
      <rects>
        <_>
          3 7 8 2 -1.</_>
        <_>
          7 7 4 2 2.</_></rects>
      <tilted>0</tilted></_>
    <_>
      <rects>
        <_>
          3 7 7 8 -1.</_>
        <_>
          3 11 7 4 2.</_></rects>
      <tilted>0</tilted></_>
    <_>
      <rects>
        <_>
          3 9 8 2 -1.</_>
        <_>
          3 9 4 1 2.</_>
        <_>
          7 10 4 1 2.</_></rects>
      <tilted>0</tilted></_>
    <_>
      <rects>
        <_>
          3 12 6 6 -1.</_>
        <_>
          3 12 3 3 2.</_>
        <_>
          6 15 3 3 2.</_></rects>
      <tilted>0</tilted></_>
    <_>
      <rects>
        <_>
          3 12 16 2 -1.</_>
        <_>
          3 13 16 1 2.</_></rects>
      <tilted>0</tilted></_>
    <_>
      <rects>
        <_>
          3 13 3 6 -1.</_>
        <_>
          3 16 3 3 2.</_></rects>
      <tilted>0</tilted></_>
    <_>
      <rects>
        <_>
          3 16 6 4 -1.</_>
        <_>
          3 16 3 2 2.</_>
        <_>
          6 18 3 2 2.</_></rects>
      <tilted>0</tilted></_>
    <_>
      <rects>
        <_>
          3 17 4 2 -1.</_>
        <_>
          3 17 2 1 2.</_>
        <_>
          5 18 2 1 2.</_></rects>
      <tilted>0</tilted></_>
    <_>
      <rects>
        <_>
          3 19 12 1 -1.</_>
        <_>
          7 19 4 1 2.</_></rects>
      <tilted>0</tilted></_>
    <_>
      <rects>
        <_>
          4 0 2 10 -1.</_>
        <_>
          5 0 1 10 2.</_></rects>
      <tilted>0</tilted></_>
    <_>
      <rects>
        <_>
          4 0 2 19 -1.</_>
        <_>
          5 0 1 19 2.</_></rects>
      <tilted>0</tilted></_>
    <_>
      <rects>
        <_>
          4 0 4 2 -1.</_>
        <_>
          4 0 2 1 2.</_>
        <_>
          6 1 2 1 2.</_></rects>
      <tilted>0</tilted></_>
    <_>
      <rects>
        <_>
          4 0 4 10 -1.</_>
        <_>
          4 5 4 5 2.</_></rects>
      <tilted>0</tilted></_>
    <_>
      <rects>
        <_>
          4 0 10 2 -1.</_>
        <_>
          9 0 5 2 2.</_></rects>
      <tilted>0</tilted></_>
    <_>
      <rects>
        <_>
          4 0 14 1 -1.</_>
        <_>
          11 0 7 1 2.</_></rects>
      <tilted>0</tilted></_>
    <_>
      <rects>
        <_>
          4 0 13 20 -1.</_>
        <_>
          4 10 13 10 2.</_></rects>
      <tilted>0</tilted></_>
    <_>
      <rects>
        <_>
          4 0 15 20 -1.</_>
        <_>
          4 10 15 10 2.</_></rects>
      <tilted>0</tilted></_>
    <_>
      <rects>
        <_>
          4 0 16 20 -1.</_>
        <_>
          4 10 16 10 2.</_></rects>
      <tilted>0</tilted></_>
    <_>
      <rects>
        <_>
          4 1 8 18 -1.</_>
        <_>
          8 1 4 18 2.</_></rects>
      <tilted>0</tilted></_>
    <_>
      <rects>
        <_>
          4 2 13 8 -1.</_>
        <_>
          4 6 13 4 2.</_></rects>
      <tilted>0</tilted></_>
    <_>
      <rects>
        <_>
          4 3 12 12 -1.</_>
        <_>
          4 3 6 6 2.</_>
        <_>
          10 9 6 6 2.</_></rects>
      <tilted>0</tilted></_>
    <_>
      <rects>
        <_>
          4 4 8 10 -1.</_>
        <_>
          4 4 4 5 2.</_>
        <_>
          8 9 4 5 2.</_></rects>
      <tilted>0</tilted></_>
    <_>
      <rects>
        <_>
          4 5 2 4 -1.</_>
        <_>
          5 5 1 4 2.</_></rects>
      <tilted>0</tilted></_>
    <_>
      <rects>
        <_>
          4 8 16 12 -1.</_>
        <_>
          4 8 8 6 2.</_>
        <_>
          12 14 8 6 2.</_></rects>
      <tilted>0</tilted></_>
    <_>
      <rects>
        <_>
          4 9 4 2 -1.</_>
        <_>
          4 9 2 1 2.</_>
        <_>
          6 10 2 1 2.</_></rects>
      <tilted>0</tilted></_>
    <_>
      <rects>
        <_>
          4 16 2 2 -1.</_>
        <_>
          4 16 1 1 2.</_>
        <_>
          5 17 1 1 2.</_></rects>
      <tilted>0</tilted></_>
    <_>
      <rects>
        <_>
          5 0 15 2 -1.</_>
        <_>
          5 1 15 1 2.</_></rects>
      <tilted>0</tilted></_>
    <_>
      <rects>
        <_>
          5 1 2 4 -1.</_>
        <_>
          5 1 1 2 2.</_>
        <_>
          6 3 1 2 2.</_></rects>
      <tilted>0</tilted></_>
    <_>
      <rects>
        <_>
          5 2 2 2 -1.</_>
        <_>
          5 2 1 1 2.</_>
        <_>
          6 3 1 1 2.</_></rects>
      <tilted>0</tilted></_>
    <_>
      <rects>
        <_>
          5 2 9 6 -1.</_>
        <_>
          5 5 9 3 2.</_></rects>
      <tilted>0</tilted></_>
    <_>
      <rects>
        <_>
          5 2 15 18 -1.</_>
        <_>
          5 11 15 9 2.</_></rects>
      <tilted>0</tilted></_>
    <_>
      <rects>
        <_>
          5 3 1 8 -1.</_>
        <_>
          5 7 1 4 2.</_></rects>
      <tilted>0</tilted></_>
    <_>
      <rects>
        <_>
          5 7 2 8 -1.</_>
        <_>
          5 7 1 4 2.</_>
        <_>
          6 11 1 4 2.</_></rects>
      <tilted>0</tilted></_>
    <_>
      <rects>
        <_>
          5 7 8 12 -1.</_>
        <_>
          5 13 8 6 2.</_></rects>
      <tilted>0</tilted></_>
    <_>
      <rects>
        <_>
          5 9 6 1 -1.</_>
        <_>
          8 9 3 1 2.</_></rects>
      <tilted>0</tilted></_>
    <_>
      <rects>
        <_>
          5 10 6 2 -1.</_>
        <_>
          8 10 3 2 2.</_></rects>
      <tilted>0</tilted></_>
    <_>
      <rects>
        <_>
          5 14 15 4 -1.</_>
        <_>
          5 16 15 2 2.</_></rects>
      <tilted>0</tilted></_>
    <_>
      <rects>
        <_>
          6 0 6 1 -1.</_>
        <_>
          9 0 3 1 2.</_></rects>
      <tilted>0</tilted></_>
    <_>
      <rects>
        <_>
          6 0 8 4 -1.</_>
        <_>
          10 0 4 4 2.</_></rects>
      <tilted>0</tilted></_>
    <_>
      <rects>
        <_>
          6 0 10 3 -1.</_>
        <_>
          11 0 5 3 2.</_></rects>
      <tilted>0</tilted></_>
    <_>
      <rects>
        <_>
          6 5 2 2 -1.</_>
        <_>
          6 5 1 1 2.</_>
        <_>
          7 6 1 1 2.</_></rects>
      <tilted>0</tilted></_>
    <_>
      <rects>
        <_>
          6 7 3 2 -1.</_>
        <_>
          6 8 3 1 2.</_></rects>
      <tilted>0</tilted></_>
    <_>
      <rects>
        <_>
          6 11 4 1 -1.</_>
        <_>
          8 11 2 1 2.</_></rects>
      <tilted>0</tilted></_>
    <_>
      <rects>
        <_>
          6 14 2 2 -1.</_>
        <_>
          6 14 1 1 2.</_>
        <_>
          7 15 1 1 2.</_></rects>
      <tilted>0</tilted></_>
    <_>
      <rects>
        <_>
          6 16 11 4 -1.</_>
        <_>
          6 18 11 2 2.</_></rects>
      <tilted>0</tilted></_>
    <_>
      <rects>
        <_>
          7 0 4 1 -1.</_>
        <_>
          9 0 2 1 2.</_></rects>
      <tilted>0</tilted></_>
    <_>
      <rects>
        <_>
          7 0 13 6 -1.</_>
        <_>
          7 3 13 3 2.</_></rects>
      <tilted>0</tilted></_>
    <_>
      <rects>
        <_>
          7 3 2 4 -1.</_>
        <_>
          7 3 1 2 2.</_>
        <_>
          8 5 1 2 2.</_></rects>
      <tilted>0</tilted></_>
    <_>
      <rects>
        <_>
          7 3 6 16 -1.</_>
        <_>
          7 11 6 8 2.</_></rects>
      <tilted>0</tilted></_>
    <_>
      <rects>
        <_>
          7 5 2 4 -1.</_>
        <_>
          7 5 1 2 2.</_>
        <_>
          8 7 1 2 2.</_></rects>
      <tilted>0</tilted></_>
    <_>
      <rects>
        <_>
          7 9 3 4 -1.</_>
        <_>
          8 9 1 4 2.</_></rects>
      <tilted>0</tilted></_>
    <_>
      <rects>
        <_>
          7 11 2 2 -1.</_>
        <_>
          8 11 1 2 2.</_></rects>
      <tilted>0</tilted></_>
    <_>
      <rects>
        <_>
          7 13 2 2 -1.</_>
        <_>
          7 13 1 1 2.</_>
        <_>
          8 14 1 1 2.</_></rects>
      <tilted>0</tilted></_>
    <_>
      <rects>
        <_>
          7 14 9 2 -1.</_>
        <_>
          10 14 3 2 2.</_></rects>
      <tilted>0</tilted></_>
    <_>
      <rects>
        <_>
          7 17 2 2 -1.</_>
        <_>
          7 17 1 1 2.</_>
        <_>
          8 18 1 1 2.</_></rects>
      <tilted>0</tilted></_>
    <_>
      <rects>
        <_>
          7 18 9 1 -1.</_>
        <_>
          10 18 3 1 2.</_></rects>
      <tilted>0</tilted></_>
    <_>
      <rects>
        <_>
          7 18 6 2 -1.</_>
        <_>
          10 18 3 2 2.</_></rects>
      <tilted>0</tilted></_>
    <_>
      <rects>
        <_>
          8 0 2 2 -1.</_>
        <_>
          8 0 1 1 2.</_>
        <_>
          9 1 1 1 2.</_></rects>
      <tilted>0</tilted></_>
    <_>
      <rects>
        <_>
          8 0 4 2 -1.</_>
        <_>
          8 0 2 1 2.</_>
        <_>
          10 1 2 1 2.</_></rects>
      <tilted>0</tilted></_>
    <_>
      <rects>
        <_>
          8 0 4 2 -1.</_>
        <_>
          8 1 4 1 2.</_></rects>
      <tilted>0</tilted></_>
    <_>
      <rects>
        <_>
          8 0 10 2 -1.</_>
        <_>
          8 0 5 1 2.</_>
        <_>
          13 1 5 1 2.</_></rects>
      <tilted>0</tilted></_>
    <_>
      <rects>
        <_>
          8 2 2 2 -1.</_>
        <_>
          8 2 1 1 2.</_>
        <_>
          9 3 1 1 2.</_></rects>
      <tilted>0</tilted></_>
    <_>
      <rects>
        <_>
          8 2 12 18 -1.</_>
        <_>
          8 2 6 9 2.</_>
        <_>
          14 11 6 9 2.</_></rects>
      <tilted>0</tilted></_>
    <_>
      <rects>
        <_>
          8 4 2 2 -1.</_>
        <_>
          8 4 1 1 2.</_>
        <_>
          9 5 1 1 2.</_></rects>
      <tilted>0</tilted></_>
    <_>
      <rects>
        <_>
          8 4 4 2 -1.</_>
        <_>
          10 4 2 2 2.</_></rects>
      <tilted>0</tilted></_>
    <_>
      <rects>
        <_>
          8 5 2 2 -1.</_>
        <_>
          8 5 1 1 2.</_>
        <_>
          9 6 1 1 2.</_></rects>
      <tilted>0</tilted></_>
    <_>
      <rects>
        <_>
          8 6 8 2 -1.</_>
        <_>
          8 6 4 1 2.</_>
        <_>
          12 7 4 1 2.</_></rects>
      <tilted>0</tilted></_>
    <_>
      <rects>
        <_>
          8 9 2 2 -1.</_>
        <_>
          8 9 1 1 2.</_>
        <_>
          9 10 1 1 2.</_></rects>
      <tilted>0</tilted></_>
    <_>
      <rects>
        <_>
          8 10 1 9 -1.</_>
        <_>
          8 13 1 3 2.</_></rects>
      <tilted>0</tilted></_>
    <_>
      <rects>
        <_>
          8 10 9 1 -1.</_>
        <_>
          11 10 3 1 2.</_></rects>
      <tilted>0</tilted></_>
    <_>
      <rects>
        <_>
          8 11 2 2 -1.</_>
        <_>
          8 11 1 1 2.</_>
        <_>
          9 12 1 1 2.</_></rects>
      <tilted>0</tilted></_>
    <_>
      <rects>
        <_>
          8 13 2 2 -1.</_>
        <_>
          8 13 1 1 2.</_>
        <_>
          9 14 1 1 2.</_></rects>
      <tilted>0</tilted></_>
    <_>
      <rects>
        <_>
          8 14 12 2 -1.</_>
        <_>
          12 14 4 2 2.</_></rects>
      <tilted>0</tilted></_>
    <_>
      <rects>
        <_>
          8 15 2 2 -1.</_>
        <_>
          8 15 1 1 2.</_>
        <_>
          9 16 1 1 2.</_></rects>
      <tilted>0</tilted></_>
    <_>
      <rects>
        <_>
          8 15 4 3 -1.</_>
        <_>
          10 15 2 3 2.</_></rects>
      <tilted>0</tilted></_>
    <_>
      <rects>
        <_>
          9 0 6 20 -1.</_>
        <_>
          12 0 3 20 2.</_></rects>
      <tilted>0</tilted></_>
    <_>
      <rects>
        <_>
          9 0 11 10 -1.</_>
        <_>
          9 5 11 5 2.</_></rects>
      <tilted>0</tilted></_>
    <_>
      <rects>
        <_>
          9 1 4 4 -1.</_>
        <_>
          11 1 2 4 2.</_></rects>
      <tilted>0</tilted></_>
    <_>
      <rects>
        <_>
          9 3 2 2 -1.</_>
        <_>
          9 3 1 1 2.</_>
        <_>
          10 4 1 1 2.</_></rects>
      <tilted>0</tilted></_>
    <_>
      <rects>
        <_>
          9 8 2 2 -1.</_>
        <_>
          9 8 1 1 2.</_>
        <_>
          10 9 1 1 2.</_></rects>
      <tilted>0</tilted></_>
    <_>
      <rects>
        <_>
          9 13 2 6 -1.</_>
        <_>
          9 15 2 2 2.</_></rects>
      <tilted>0</tilted></_>
    <_>
      <rects>
        <_>
          9 14 4 2 -1.</_>
        <_>
          9 14 2 1 2.</_>
        <_>
          11 15 2 1 2.</_></rects>
      <tilted>0</tilted></_>
    <_>
      <rects>
        <_>
          9 15 6 2 -1.</_>
        <_>
          9 15 3 1 2.</_>
        <_>
          12 16 3 1 2.</_></rects>
      <tilted>0</tilted></_>
    <_>
      <rects>
        <_>
          9 17 2 2 -1.</_>
        <_>
          9 17 1 1 2.</_>
        <_>
          10 18 1 1 2.</_></rects>
      <tilted>0</tilted></_>
    <_>
      <rects>
        <_>
          10 0 4 16 -1.</_>
        <_>
          10 0 2 8 2.</_>
        <_>
          12 8 2 8 2.</_></rects>
      <tilted>0</tilted></_>
    <_>
      <rects>
        <_>
          10 0 6 10 -1.</_>
        <_>
          10 0 3 5 2.</_>
        <_>
          13 5 3 5 2.</_></rects>
      <tilted>0</tilted></_>
    <_>
      <rects>
        <_>
          10 0 10 1 -1.</_>
        <_>
          15 0 5 1 2.</_></rects>
      <tilted>0</tilted></_>
    <_>
      <rects>
        <_>
          10 2 6 12 -1.</_>
        <_>
          13 2 3 12 2.</_></rects>
      <tilted>0</tilted></_>
    <_>
      <rects>
        <_>
          10 3 2 2 -1.</_>
        <_>
          10 3 1 1 2.</_>
        <_>
          11 4 1 1 2.</_></rects>
      <tilted>0</tilted></_>
    <_>
      <rects>
        <_>
          10 3 10 6 -1.</_>
        <_>
          10 3 5 3 2.</_>
        <_>
          15 6 5 3 2.</_></rects>
      <tilted>0</tilted></_>
    <_>
      <rects>
        <_>
          10 4 6 5 -1.</_>
        <_>
          13 4 3 5 2.</_></rects>
      <tilted>0</tilted></_>
    <_>
      <rects>
        <_>
          10 4 9 16 -1.</_>
        <_>
          10 12 9 8 2.</_></rects>
      <tilted>0</tilted></_>
    <_>
      <rects>
        <_>
          10 10 3 6 -1.</_>
        <_>
          10 12 3 2 2.</_></rects>
      <tilted>0</tilted></_>
    <_>
      <rects>
        <_>
          10 12 6 2 -1.</_>
        <_>
          10 12 3 1 2.</_>
        <_>
          13 13 3 1 2.</_></rects>
      <tilted>0</tilted></_>
    <_>
      <rects>
        <_>
          10 13 6 4 -1.</_>
        <_>
          10 15 6 2 2.</_></rects>
      <tilted>0</tilted></_>
    <_>
      <rects>
        <_>
          10 18 8 2 -1.</_>
        <_>
          14 18 4 2 2.</_></rects>
      <tilted>0</tilted></_>
    <_>
      <rects>
        <_>
          10 18 10 2 -1.</_>
        <_>
          10 19 10 1 2.</_></rects>
      <tilted>0</tilted></_>
    <_>
      <rects>
        <_>
          11 0 8 6 -1.</_>
        <_>
          15 0 4 6 2.</_></rects>
      <tilted>0</tilted></_>
    <_>
      <rects>
        <_>
          11 0 9 18 -1.</_>
        <_>
          11 9 9 9 2.</_></rects>
      <tilted>0</tilted></_>
    <_>
      <rects>
        <_>
          11 1 6 14 -1.</_>
        <_>
          11 1 3 7 2.</_>
        <_>
          14 8 3 7 2.</_></rects>
      <tilted>0</tilted></_>
    <_>
      <rects>
        <_>
          11 3 2 1 -1.</_>
        <_>
          12 3 1 1 2.</_></rects>
      <tilted>0</tilted></_>
    <_>
      <rects>
        <_>
          11 4 6 14 -1.</_>
        <_>
          11 4 3 7 2.</_>
        <_>
          14 11 3 7 2.</_></rects>
      <tilted>0</tilted></_>
    <_>
      <rects>
        <_>
          11 6 2 2 -1.</_>
        <_>
          11 6 1 1 2.</_>
        <_>
          12 7 1 1 2.</_></rects>
      <tilted>0</tilted></_>
    <_>
      <rects>
        <_>
          11 10 4 2 -1.</_>
        <_>
          11 10 2 1 2.</_>
        <_>
          13 11 2 1 2.</_></rects>
      <tilted>0</tilted></_>
    <_>
      <rects>
        <_>
          11 14 2 2 -1.</_>
        <_>
          11 14 1 1 2.</_>
        <_>
          12 15 1 1 2.</_></rects>
      <tilted>0</tilted></_>
    <_>
      <rects>
        <_>
          11 15 2 2 -1.</_>
        <_>
          11 15 1 1 2.</_>
        <_>
          12 16 1 1 2.</_></rects>
      <tilted>0</tilted></_>
    <_>
      <rects>
        <_>
          11 15 7 2 -1.</_>
        <_>
          11 16 7 1 2.</_></rects>
      <tilted>0</tilted></_>
    <_>
      <rects>
        <_>
          11 16 2 2 -1.</_>
        <_>
          11 16 1 1 2.</_>
        <_>
          12 17 1 1 2.</_></rects>
      <tilted>0</tilted></_>
    <_>
      <rects>
        <_>
          11 16 1 4 -1.</_>
        <_>
          11 18 1 2 2.</_></rects>
      <tilted>0</tilted></_>
    <_>
      <rects>
        <_>
          11 18 9 2 -1.</_>
        <_>
          14 18 3 2 2.</_></rects>
      <tilted>0</tilted></_>
    <_>
      <rects>
        <_>
          12 0 4 7 -1.</_>
        <_>
          14 0 2 7 2.</_></rects>
      <tilted>0</tilted></_>
    <_>
      <rects>
        <_>
          12 0 6 10 -1.</_>
        <_>
          12 0 3 5 2.</_>
        <_>
          15 5 3 5 2.</_></rects>
      <tilted>0</tilted></_>
    <_>
      <rects>
        <_>
          12 0 8 3 -1.</_>
        <_>
          16 0 4 3 2.</_></rects>
      <tilted>0</tilted></_>
    <_>
      <rects>
        <_>
          12 1 1 10 -1.</_>
        <_>
          12 6 1 5 2.</_></rects>
      <tilted>0</tilted></_>
    <_>
      <rects>
        <_>
          12 3 2 8 -1.</_>
        <_>
          13 3 1 8 2.</_></rects>
      <tilted>0</tilted></_>
    <_>
      <rects>
        <_>
          12 6 2 2 -1.</_>
        <_>
          12 6 1 1 2.</_>
        <_>
          13 7 1 1 2.</_></rects>
      <tilted>0</tilted></_>
    <_>
      <rects>
        <_>
          12 7 2 12 -1.</_>
        <_>
          12 11 2 4 2.</_></rects>
      <tilted>0</tilted></_>
    <_>
      <rects>
        <_>
          12 8 8 7 -1.</_>
        <_>
          16 8 4 7 2.</_></rects>
      <tilted>0</tilted></_>
    <_>
      <rects>
        <_>
          12 9 3 1 -1.</_>
        <_>
          13 9 1 1 2.</_></rects>
      <tilted>0</tilted></_>
    <_>
      <rects>
        <_>
          12 12 4 2 -1.</_>
        <_>
          12 12 2 1 2.</_>
        <_>
          14 13 2 1 2.</_></rects>
      <tilted>0</tilted></_>
    <_>
      <rects>
        <_>
          12 14 3 5 -1.</_>
        <_>
          13 14 1 5 2.</_></rects>
      <tilted>0</tilted></_>
    <_>
      <rects>
        <_>
          12 15 4 2 -1.</_>
        <_>
          12 15 2 1 2.</_>
        <_>
          14 16 2 1 2.</_></rects>
      <tilted>0</tilted></_>
    <_>
      <rects>
        <_>
          13 0 2 12 -1.</_>
        <_>
          13 0 1 6 2.</_>
        <_>
          14 6 1 6 2.</_></rects>
      <tilted>0</tilted></_>
    <_>
      <rects>
        <_>
          13 0 3 2 -1.</_>
        <_>
          13 1 3 1 2.</_></rects>
      <tilted>0</tilted></_>
    <_>
      <rects>
        <_>
          13 0 6 18 -1.</_>
        <_>
          13 0 3 9 2.</_>
        <_>
          16 9 3 9 2.</_></rects>
      <tilted>0</tilted></_>
    <_>
      <rects>
        <_>
          13 0 5 6 -1.</_>
        <_>
          13 3 5 3 2.</_></rects>
      <tilted>0</tilted></_>
    <_>
      <rects>
        <_>
          13 7 2 8 -1.</_>
        <_>
          13 7 1 4 2.</_>
        <_>
          14 11 1 4 2.</_></rects>
      <tilted>0</tilted></_>
    <_>
      <rects>
        <_>
          13 12 6 2 -1.</_>
        <_>
          13 12 3 1 2.</_>
        <_>
          16 13 3 1 2.</_></rects>
      <tilted>0</tilted></_>
    <_>
      <rects>
        <_>
          13 13 2 2 -1.</_>
        <_>
          13 13 1 1 2.</_>
        <_>
          14 14 1 1 2.</_></rects>
      <tilted>0</tilted></_>
    <_>
      <rects>
        <_>
          13 13 2 4 -1.</_>
        <_>
          13 13 1 2 2.</_>
        <_>
          14 15 1 2 2.</_></rects>
      <tilted>0</tilted></_>
    <_>
      <rects>
        <_>
          13 14 2 2 -1.</_>
        <_>
          13 14 1 1 2.</_>
        <_>
          14 15 1 1 2.</_></rects>
      <tilted>0</tilted></_>
    <_>
      <rects>
        <_>
          13 15 4 2 -1.</_>
        <_>
          13 15 2 1 2.</_>
        <_>
          15 16 2 1 2.</_></rects>
      <tilted>0</tilted></_>
    <_>
      <rects>
        <_>
          13 18 2 2 -1.</_>
        <_>
          13 18 1 1 2.</_>
        <_>
          14 19 1 1 2.</_></rects>
      <tilted>0</tilted></_>
    <_>
      <rects>
        <_>
          14 0 1 2 -1.</_>
        <_>
          14 1 1 1 2.</_></rects>
      <tilted>0</tilted></_>
    <_>
      <rects>
        <_>
          14 0 3 12 -1.</_>
        <_>
          14 6 3 6 2.</_></rects>
      <tilted>0</tilted></_>
    <_>
      <rects>
        <_>
          14 1 2 5 -1.</_>
        <_>
          15 1 1 5 2.</_></rects>
      <tilted>0</tilted></_>
    <_>
      <rects>
        <_>
          14 1 6 3 -1.</_>
        <_>
          17 1 3 3 2.</_></rects>
      <tilted>0</tilted></_>
    <_>
      <rects>
        <_>
          14 2 2 2 -1.</_>
        <_>
          14 2 1 1 2.</_>
        <_>
          15 3 1 1 2.</_></rects>
      <tilted>0</tilted></_>
    <_>
      <rects>
        <_>
          14 3 6 2 -1.</_>
        <_>
          14 3 3 1 2.</_>
        <_>
          17 4 3 1 2.</_></rects>
      <tilted>0</tilted></_>
    <_>
      <rects>
        <_>
          14 6 1 2 -1.</_>
        <_>
          14 7 1 1 2.</_></rects>
      <tilted>0</tilted></_>
    <_>
      <rects>
        <_>
          14 6 2 6 -1.</_>
        <_>
          15 6 1 6 2.</_></rects>
      <tilted>0</tilted></_>
    <_>
      <rects>
        <_>
          14 8 4 2 -1.</_>
        <_>
          14 8 2 1 2.</_>
        <_>
          16 9 2 1 2.</_></rects>
      <tilted>0</tilted></_>
    <_>
      <rects>
        <_>
          14 18 2 2 -1.</_>
        <_>
          14 18 1 1 2.</_>
        <_>
          15 19 1 1 2.</_></rects>
      <tilted>0</tilted></_>
    <_>
      <rects>
        <_>
          15 0 2 2 -1.</_>
        <_>
          15 0 1 1 2.</_>
        <_>
          16 1 1 1 2.</_></rects>
      <tilted>0</tilted></_>
    <_>
      <rects>
        <_>
          15 0 4 16 -1.</_>
        <_>
          15 0 2 8 2.</_>
        <_>
          17 8 2 8 2.</_></rects>
      <tilted>0</tilted></_>
    <_>
      <rects>
        <_>
          15 0 4 18 -1.</_>
        <_>
          15 0 2 9 2.</_>
        <_>
          17 9 2 9 2.</_></rects>
      <tilted>0</tilted></_>
    <_>
      <rects>
        <_>
          15 0 5 8 -1.</_>
        <_>
          15 4 5 4 2.</_></rects>
      <tilted>0</tilted></_>
    <_>
      <rects>
        <_>
          15 1 4 10 -1.</_>
        <_>
          15 1 2 5 2.</_>
        <_>
          17 6 2 5 2.</_></rects>
      <tilted>0</tilted></_>
    <_>
      <rects>
        <_>
          15 2 3 4 -1.</_>
        <_>
          16 2 1 4 2.</_></rects>
      <tilted>0</tilted></_>
    <_>
      <rects>
        <_>
          15 5 2 2 -1.</_>
        <_>
          15 5 1 1 2.</_>
        <_>
          16 6 1 1 2.</_></rects>
      <tilted>0</tilted></_>
    <_>
      <rects>
        <_>
          15 6 2 4 -1.</_>
        <_>
          15 6 1 2 2.</_>
        <_>
          16 8 1 2 2.</_></rects>
      <tilted>0</tilted></_>
    <_>
      <rects>
        <_>
          15 7 2 2 -1.</_>
        <_>
          15 7 1 1 2.</_>
        <_>
          16 8 1 1 2.</_></rects>
      <tilted>0</tilted></_>
    <_>
      <rects>
        <_>
          15 9 2 2 -1.</_>
        <_>
          15 9 1 1 2.</_>
        <_>
          16 10 1 1 2.</_></rects>
      <tilted>0</tilted></_>
    <_>
      <rects>
        <_>
          15 13 2 2 -1.</_>
        <_>
          15 13 1 1 2.</_>
        <_>
          16 14 1 1 2.</_></rects>
      <tilted>0</tilted></_>
    <_>
      <rects>
        <_>
          15 14 2 3 -1.</_>
        <_>
          16 14 1 3 2.</_></rects>
      <tilted>0</tilted></_>
    <_>
      <rects>
        <_>
          15 15 2 2 -1.</_>
        <_>
          15 15 1 1 2.</_>
        <_>
          16 16 1 1 2.</_></rects>
      <tilted>0</tilted></_>
    <_>
      <rects>
        <_>
          15 16 2 2 -1.</_>
        <_>
          15 16 1 1 2.</_>
        <_>
          16 17 1 1 2.</_></rects>
      <tilted>0</tilted></_>
    <_>
      <rects>
        <_>
          15 17 4 2 -1.</_>
        <_>
          15 17 2 1 2.</_>
        <_>
          17 18 2 1 2.</_></rects>
      <tilted>0</tilted></_>
    <_>
      <rects>
        <_>
          15 17 5 3 -1.</_>
        <_>
          15 18 5 1 2.</_></rects>
      <tilted>0</tilted></_>
    <_>
      <rects>
        <_>
          15 19 3 1 -1.</_>
        <_>
          16 19 1 1 2.</_></rects>
      <tilted>0</tilted></_>
    <_>
      <rects>
        <_>
          16 0 4 2 -1.</_>
        <_>
          16 0 2 1 2.</_>
        <_>
          18 1 2 1 2.</_></rects>
      <tilted>0</tilted></_>
    <_>
      <rects>
        <_>
          16 0 4 18 -1.</_>
        <_>
          16 0 2 9 2.</_>
        <_>
          18 9 2 9 2.</_></rects>
      <tilted>0</tilted></_>
    <_>
      <rects>
        <_>
          16 3 2 2 -1.</_>
        <_>
          16 3 1 1 2.</_>
        <_>
          17 4 1 1 2.</_></rects>
      <tilted>0</tilted></_>
    <_>
      <rects>
        <_>
          16 11 1 2 -1.</_>
        <_>
          16 12 1 1 2.</_></rects>
      <tilted>0</tilted></_>
    <_>
      <rects>
        <_>
          16 12 2 3 -1.</_>
        <_>
          17 12 1 3 2.</_></rects>
      <tilted>0</tilted></_>
    <_>
      <rects>
        <_>
          16 16 2 4 -1.</_>
        <_>
          16 16 1 2 2.</_>
        <_>
          17 18 1 2 2.</_></rects>
      <tilted>0</tilted></_>
    <_>
      <rects>
        <_>
          16 18 3 2 -1.</_>
        <_>
          16 19 3 1 2.</_></rects>
      <tilted>0</tilted></_>
    <_>
      <rects>
        <_>
          16 19 3 1 -1.</_>
        <_>
          17 19 1 1 2.</_></rects>
      <tilted>0</tilted></_>
    <_>
      <rects>
        <_>
          17 2 2 2 -1.</_>
        <_>
          17 2 1 1 2.</_>
        <_>
          18 3 1 1 2.</_></rects>
      <tilted>0</tilted></_>
    <_>
      <rects>
        <_>
          17 4 2 14 -1.</_>
        <_>
          18 4 1 14 2.</_></rects>
      <tilted>0</tilted></_>
    <_>
      <rects>
        <_>
          17 4 2 16 -1.</_>
        <_>
          18 4 1 16 2.</_></rects>
      <tilted>0</tilted></_>
    <_>
      <rects>
        <_>
          17 5 2 4 -1.</_>
        <_>
          17 5 1 2 2.</_>
        <_>
          18 7 1 2 2.</_></rects>
      <tilted>0</tilted></_>
    <_>
      <rects>
        <_>
          17 6 2 4 -1.</_>
        <_>
          17 6 1 2 2.</_>
        <_>
          18 8 1 2 2.</_></rects>
      <tilted>0</tilted></_>
    <_>
      <rects>
        <_>
          17 9 2 2 -1.</_>
        <_>
          17 9 1 1 2.</_>
        <_>
          18 10 1 1 2.</_></rects>
      <tilted>0</tilted></_>
    <_>
      <rects>
        <_>
          17 10 2 2 -1.</_>
        <_>
          17 10 1 1 2.</_>
        <_>
          18 11 1 1 2.</_></rects>
      <tilted>0</tilted></_>
    <_>
      <rects>
        <_>
          17 11 1 8 -1.</_>
        <_>
          17 15 1 4 2.</_></rects>
      <tilted>0</tilted></_>
    <_>
      <rects>
        <_>
          17 15 2 4 -1.</_>
        <_>
          17 15 1 2 2.</_>
        <_>
          18 17 1 2 2.</_></rects>
      <tilted>0</tilted></_>
    <_>
      <rects>
        <_>
          17 15 3 4 -1.</_>
        <_>
          18 15 1 4 2.</_></rects>
      <tilted>0</tilted></_>
    <_>
      <rects>
        <_>
          17 16 2 2 -1.</_>
        <_>
          17 16 1 1 2.</_>
        <_>
          18 17 1 1 2.</_></rects>
      <tilted>0</tilted></_>
    <_>
      <rects>
        <_>
          18 0 1 18 -1.</_>
        <_>
          18 6 1 6 2.</_></rects>
      <tilted>0</tilted></_>
    <_>
      <rects>
        <_>
          18 2 2 18 -1.</_>
        <_>
          18 2 1 9 2.</_>
        <_>
          19 11 1 9 2.</_></rects>
      <tilted>0</tilted></_>
    <_>
      <rects>
        <_>
          18 3 2 9 -1.</_>
        <_>
          19 3 1 9 2.</_></rects>
      <tilted>0</tilted></_>
    <_>
      <rects>
        <_>
          18 4 2 2 -1.</_>
        <_>
          18 4 1 1 2.</_>
        <_>
          19 5 1 1 2.</_></rects>
      <tilted>0</tilted></_>
    <_>
      <rects>
        <_>
          18 5 1 15 -1.</_>
        <_>
          18 10 1 5 2.</_></rects>
      <tilted>0</tilted></_>
    <_>
      <rects>
        <_>
          18 7 2 2 -1.</_>
        <_>
          18 7 1 1 2.</_>
        <_>
          19 8 1 1 2.</_></rects>
      <tilted>0</tilted></_>
    <_>
      <rects>
        <_>
          18 7 2 6 -1.</_>
        <_>
          19 7 1 6 2.</_></rects>
      <tilted>0</tilted></_>
    <_>
      <rects>
        <_>
          18 8 2 12 -1.</_>
        <_>
          18 14 2 6 2.</_></rects>
      <tilted>0</tilted></_>
    <_>
      <rects>
        <_>
          18 10 2 2 -1.</_>
        <_>
          18 10 1 1 2.</_>
        <_>
          19 11 1 1 2.</_></rects>
      <tilted>0</tilted></_>
    <_>
      <rects>
        <_>
          18 15 2 4 -1.</_>
        <_>
          18 17 2 2 2.</_></rects>
      <tilted>0</tilted></_>
    <_>
      <rects>
        <_>
          18 17 2 3 -1.</_>
        <_>
          18 18 2 1 2.</_></rects>
      <tilted>0</tilted></_>
    <_>
      <rects>
        <_>
          19 13 1 6 -1.</_>
        <_>
          19 16 1 3 2.</_></rects>
      <tilted>0</tilted></_>
    <_>
      <rects>
        <_>
          19 17 1 3 -1.</_>
        <_>
          19 18 1 1 2.</_></rects>
      <tilted>0</tilted></_></features></cascade>
</opencv_storage>
