<?xml version="1.0"?>
<opencv_storage>
<cascade>
  <stageType>BOOST</stageType>
  <featureType>HAAR</featureType>
  <height>20</height>
  <width>20</width>
  <stageParams>
    <boostType>GAB</boostType>
    <minHitRate>9.9500000476837158e-01</minHitRate>
    <maxFalseAlarm>5.0000000000000000e-01</maxFalseAlarm>
    <weightTrimRate>9.4999999999999996e-01</weightTrimRate>
    <maxDepth>1</maxDepth>
    <maxWeakCount>100</maxWeakCount></stageParams>
  <featureParams>
    <maxCatCount>0</maxCatCount>
    <featSize>1</featSize>
    <mode>BASIC</mode></featureParams>
  <stageNum>10</stageNum>
  <stages>
    <!-- stage 0 -->
    <_>
      <maxWeakCount>9</maxWeakCount>
      <stageThreshold>-9.6967107057571411e-01</stageThreshold>
      <weakClassifiers>
        <_>
          <internalNodes>
            0 -1 59 2.9164662119001150e-03</internalNodes>
          <leafValues>
            -3.1468531489372253e-01 7.3275864124298096e-01</leafValues></_>
        <_>
          <internalNodes>
            0 -1 24 -1.3293985277414322e-02</internalNodes>
          <leafValues>
            6.1390656232833862e-01 -3.3029243350028992e-01</leafValues></_>
        <_>
          <internalNodes>
            0 -1 35 5.1381583325564861e-03</internalNodes>
          <leafValues>
            -3.8013398647308350e-01 5.1494246721267700e-01</leafValues></_>
        <_>
          <internalNodes>
            0 -1 50 1.9913278520107269e-03</internalNodes>
          <leafValues>
            -5.0913715362548828e-01 4.1777354478836060e-01</leafValues></_>
        <_>
          <internalNodes>
            0 -1 103 -5.8835791423916817e-03</internalNodes>
          <leafValues>
            3.7857937812805176e-01 -5.5025982856750488e-01</leafValues></_>
        <_>
          <internalNodes>
            0 -1 101 -1.6097559127956629e-03</internalNodes>
          <leafValues>
            5.5836892127990723e-01 -3.4524172544479370e-01</leafValues></_>
        <_>
          <internalNodes>
            0 -1 84 -2.3406893014907837e-02</internalNodes>
          <leafValues>
            -6.7441582679748535e-01 2.9303821921348572e-01</leafValues></_>
        <_>
          <internalNodes>
            0 -1 7 -2.2206652909517288e-02</internalNodes>
          <leafValues>
            7.4873328208923340e-01 -2.9989609122276306e-01</leafValues></_>
        <_>
          <internalNodes>
            0 -1 121 -3.7251692265272141e-03</internalNodes>
          <leafValues>
            5.3809803724288940e-01 -3.1353670358657837e-01</leafValues></_></weakClassifiers></_>
    <!-- stage 1 -->
    <_>
      <maxWeakCount>10</maxWeakCount>
      <stageThreshold>-6.4125537872314453e-01</stageThreshold>
      <weakClassifiers>
        <_>
          <internalNodes>
            0 -1 56 5.5459318682551384e-03</internalNodes>
          <leafValues>
            -1.5824915468692780e-01 6.7848700284957886e-01</leafValues></_>
        <_>
          <internalNodes>
            0 -1 95 -1.7181150615215302e-03</internalNodes>
          <leafValues>
            3.7497931718826294e-01 -4.6433487534523010e-01</leafValues></_>
        <_>
          <internalNodes>
            0 -1 30 4.1615227237343788e-03</internalNodes>
          <leafValues>
            -3.3276325464248657e-01 4.6840855479240417e-01</leafValues></_>
        <_>
          <internalNodes>
            0 -1 15 -2.0141035318374634e-02</internalNodes>
          <leafValues>
            5.9685409069061279e-01 -2.4366796016693115e-01</leafValues></_>
        <_>
          <internalNodes>
            0 -1 71 2.5704973377287388e-03</internalNodes>
          <leafValues>
            -3.0195835232734680e-01 4.6066096425056458e-01</leafValues></_>
        <_>
          <internalNodes>
            0 -1 75 1.6990037634968758e-02</internalNodes>
          <leafValues>
            -1.8482333421707153e-01 7.0414906740188599e-01</leafValues></_>
        <_>
          <internalNodes>
            0 -1 108 -3.9728926494717598e-03</internalNodes>
          <leafValues>
            1.8194377422332764e-01 -8.9261913299560547e-01</leafValues></_>
        <_>
          <internalNodes>
            0 -1 109 3.3686418086290359e-02</internalNodes>
          <leafValues>
            -2.5712272524833679e-01 5.9356182813644409e-01</leafValues></_>
        <_>
          <internalNodes>
            0 -1 114 -1.5655186027288437e-02</internalNodes>
          <leafValues>
            -9.3354386091232300e-01 1.8292967975139618e-01</leafValues></_>
        <_>
          <internalNodes>
            0 -1 18 -4.7724377363920212e-03</internalNodes>
          <leafValues>
            1.4545089006423950e-01 -7.5320798158645630e-01</leafValues></_></weakClassifiers></_>
    <!-- stage 2 -->
    <_>
      <maxWeakCount>8</maxWeakCount>
      <stageThreshold>-3.0415192246437073e-01</stageThreshold>
      <weakClassifiers>
        <_>
          <internalNodes>
            0 -1 81 -5.1512420177459717e-01</internalNodes>
          <leafValues>
            7.2340422868728638e-01 -9.3023255467414856e-02</leafValues></_>
        <_>
          <internalNodes>
            0 -1 83 -3.8029644638299942e-03</internalNodes>
          <leafValues>
            3.5968631505966187e-01 -5.0189626216888428e-01</leafValues></_>
        <_>
          <internalNodes>
            0 -1 99 -3.0600856989622116e-02</internalNodes>
          <leafValues>
            5.6883662939071655e-01 -2.8789794445037842e-01</leafValues></_>
        <_>
          <internalNodes>
            0 -1 36 -1.4731852337718010e-02</internalNodes>
          <leafValues>
            -6.4709627628326416e-01 1.7920629680156708e-01</leafValues></_>
        <_>
          <internalNodes>
            0 -1 51 2.7268033009022474e-03</internalNodes>
          <leafValues>
            -4.1389328241348267e-01 3.1292718648910522e-01</leafValues></_>
        <_>
          <internalNodes>
            0 -1 106 4.4865235686302185e-03</internalNodes>
          <leafValues>
            -1.5576465427875519e-01 8.2117849588394165e-01</leafValues></_>
        <_>
          <internalNodes>
            0 -1 27 2.8804726898670197e-02</internalNodes>
          <leafValues>
            1.5949477255344391e-01 -7.9918688535690308e-01</leafValues></_>
        <_>
          <internalNodes>
            0 -1 63 2.7669295668601990e-03</internalNodes>
          <leafValues>
            1.4903944730758667e-01 -7.3362559080123901e-01</leafValues></_></weakClassifiers></_>
    <!-- stage 3 -->
    <_>
      <maxWeakCount>14</maxWeakCount>
      <stageThreshold>-9.6760022640228271e-01</stageThreshold>
      <weakClassifiers>
        <_>
          <internalNodes>
            0 -1 68 -5.9124901890754700e-03</internalNodes>
          <leafValues>
            6.2686568498611450e-01 -3.7735849618911743e-02</leafValues></_>
        <_>
          <internalNodes>
            0 -1 8 -1.8555274233222008e-02</internalNodes>
          <leafValues>
            6.9602411985397339e-01 -1.3411623239517212e-01</leafValues></_>
        <_>
          <internalNodes>
            0 -1 9 -1.9748540222644806e-01</internalNodes>
          <leafValues>
            3.7824773788452148e-01 -2.7296459674835205e-01</leafValues></_>
        <_>
          <internalNodes>
            0 -1 33 2.1806079894304276e-02</internalNodes>
          <leafValues>
            -1.7957040667533875e-01 7.6025557518005371e-01</leafValues></_>
        <_>
          <internalNodes>
            0 -1 46 1.5946570783853531e-03</internalNodes>
          <leafValues>
            1.6424843668937683e-01 -7.1101105213165283e-01</leafValues></_>
        <_>
          <internalNodes>
            0 -1 58 2.4707159027457237e-03</internalNodes>
          <leafValues>
            9.9669188261032104e-02 -8.7965351343154907e-01</leafValues></_>
        <_>
          <internalNodes>
            0 -1 89 9.6046719700098038e-03</internalNodes>
          <leafValues>
            -1.4822310209274292e-01 8.1490510702133179e-01</leafValues></_>
        <_>
          <internalNodes>
            0 -1 82 -1.7196701373904943e-03</internalNodes>
          <leafValues>
            2.1167384088039398e-01 -5.8210325241088867e-01</leafValues></_>
        <_>
          <internalNodes>
            0 -1 107 -2.9286283999681473e-02</internalNodes>
          <leafValues>
            7.1799051761627197e-01 -1.7955413460731506e-01</leafValues></_>
        <_>
          <internalNodes>
            0 -1 64 1.8598211463540792e-03</internalNodes>
          <leafValues>
            1.3859449326992035e-01 -9.0216547250747681e-01</leafValues></_>
        <_>
          <internalNodes>
            0 -1 19 2.6975324377417564e-02</internalNodes>
          <leafValues>
            -3.2037752866744995e-01 3.4503933787345886e-01</leafValues></_>
        <_>
          <internalNodes>
            0 -1 122 -7.6130661182105541e-03</internalNodes>
          <leafValues>
            4.7039937973022461e-01 -2.4858935177326202e-01</leafValues></_>
        <_>
          <internalNodes>
            0 -1 66 -8.2990765804424882e-04</internalNodes>
          <leafValues>
            -6.2108433246612549e-01 1.8621906638145447e-01</leafValues></_>
        <_>
          <internalNodes>
            0 -1 1 -1.3664776459336281e-02</internalNodes>
          <leafValues>
            6.5787637233734131e-01 -1.6924235224723816e-01</leafValues></_></weakClassifiers></_>
    <!-- stage 4 -->
    <_>
      <maxWeakCount>14</maxWeakCount>
      <stageThreshold>-7.1457409858703613e-01</stageThreshold>
      <weakClassifiers>
        <_>
          <internalNodes>
            0 -1 40 2.5891284458339214e-03</internalNodes>
          <leafValues>
            4.3597561120986938e-01 -7.1875000000000000e-01</leafValues></_>
        <_>
          <internalNodes>
            0 -1 52 1.2987717054784298e-03</internalNodes>
          <leafValues>
            -3.4657993912696838e-01 3.3606186509132385e-01</leafValues></_>
        <_>
          <internalNodes>
            0 -1 93 -6.6873780451714993e-03</internalNodes>
          <leafValues>
            3.7469872832298279e-01 -3.2303896546363831e-01</leafValues></_>
        <_>
          <internalNodes>
            0 -1 5 -6.0711584985256195e-02</internalNodes>
          <leafValues>
            6.0177379846572876e-01 -1.9330823421478271e-01</leafValues></_>
        <_>
          <internalNodes>
            0 -1 78 2.8466848656535149e-02</internalNodes>
          <leafValues>
            -2.4261474609375000e-01 5.2055519819259644e-01</leafValues></_>
        <_>
          <internalNodes>
            0 -1 97 -7.5237569399178028e-03</internalNodes>
          <leafValues>
            3.1234329938888550e-01 -3.6954444646835327e-01</leafValues></_>
        <_>
          <internalNodes>
            0 -1 41 -1.1799319181591272e-03</internalNodes>
          <leafValues>
            -6.7905992269515991e-01 1.7873720824718475e-01</leafValues></_>
        <_>
          <internalNodes>
            0 -1 74 2.2401923313736916e-02</internalNodes>
          <leafValues>
            -1.5382537245750427e-01 7.2724741697311401e-01</leafValues></_>
        <_>
          <internalNodes>
            0 -1 105 -4.0402943268418312e-03</internalNodes>
          <leafValues>
            -7.3918789625167847e-01 1.3477481901645660e-01</leafValues></_>
        <_>
          <internalNodes>
            0 -1 123 9.1165048070251942e-04</internalNodes>
          <leafValues>
            -2.9351481795310974e-01 3.4077590703964233e-01</leafValues></_>
        <_>
          <internalNodes>
            0 -1 47 2.3336336016654968e-03</internalNodes>
          <leafValues>
            1.6543023288249969e-01 -6.3238513469696045e-01</leafValues></_>
        <_>
          <internalNodes>
            0 -1 31 -7.9754367470741272e-03</internalNodes>
          <leafValues>
            6.5408515930175781e-01 -1.6761051118373871e-01</leafValues></_>
        <_>
          <internalNodes>
            0 -1 34 -6.8414648994803429e-03</internalNodes>
          <leafValues>
            4.8447689414024353e-01 -2.3789542913436890e-01</leafValues></_>
        <_>
          <internalNodes>
            0 -1 54 -2.5049842894077301e-02</internalNodes>
          <leafValues>
            -9.1748666763305664e-01 1.3172626495361328e-01</leafValues></_></weakClassifiers></_>
    <!-- stage 5 -->
    <_>
      <maxWeakCount>14</maxWeakCount>
      <stageThreshold>-5.7886278629302979e-01</stageThreshold>
      <weakClassifiers>
        <_>
          <internalNodes>
            0 -1 90 -2.6169139891862869e-03</internalNodes>
          <leafValues>
            6.5479451417922974e-01 2.8169013094156981e-03</leafValues></_>
        <_>
          <internalNodes>
            0 -1 16 -1.1362336575984955e-02</internalNodes>
          <leafValues>
            6.1225992441177368e-01 -1.4413468539714813e-01</leafValues></_>
        <_>
          <internalNodes>
            0 -1 120 -7.5230081565678120e-03</internalNodes>
          <leafValues>
            4.3153381347656250e-01 -2.6376435160636902e-01</leafValues></_>
        <_>
          <internalNodes>
            0 -1 72 3.0482527799904346e-03</internalNodes>
          <leafValues>
            -2.2448036074638367e-01 4.6770337224006653e-01</leafValues></_>
        <_>
          <internalNodes>
            0 -1 13 8.4125567227602005e-03</internalNodes>
          <leafValues>
            -2.1549616754055023e-01 5.0998765230178833e-01</leafValues></_>
        <_>
          <internalNodes>
            0 -1 39 1.7691004322841763e-03</internalNodes>
          <leafValues>
            1.5484051406383514e-01 -8.5833168029785156e-01</leafValues></_>
        <_>
          <internalNodes>
            0 -1 115 2.8489330783486366e-02</internalNodes>
          <leafValues>
            -2.1953198313713074e-01 4.5134508609771729e-01</leafValues></_>
        <_>
          <internalNodes>
            0 -1 44 1.4294724678620696e-03</internalNodes>
          <leafValues>
            1.5296991169452667e-01 -6.7057174444198608e-01</leafValues></_>
        <_>
          <internalNodes>
            0 -1 57 -3.0303422361612320e-02</internalNodes>
          <leafValues>
            -8.9136797189712524e-01 8.5089497268199921e-02</leafValues></_>
        <_>
          <internalNodes>
            0 -1 43 -4.3275323696434498e-03</internalNodes>
          <leafValues>
            1.2895104289054871e-01 -6.7673742771148682e-01</leafValues></_>
        <_>
          <internalNodes>
            0 -1 25 -4.8893079161643982e-02</internalNodes>
          <leafValues>
            7.1504455804824829e-01 -1.6602803766727448e-01</leafValues></_>
        <_>
          <internalNodes>
            0 -1 100 -4.9577653408050537e-03</internalNodes>
          <leafValues>
            4.7174733877182007e-01 -1.9632132351398468e-01</leafValues></_>
        <_>
          <internalNodes>
            0 -1 38 -2.2243198473006487e-03</internalNodes>
          <leafValues>
            -6.0706210136413574e-01 1.5748994052410126e-01</leafValues></_>
        <_>
          <internalNodes>
            0 -1 12 4.4404705986380577e-03</internalNodes>
          <leafValues>
            -3.2545265555381775e-01 3.1446388363838196e-01</leafValues></_></weakClassifiers></_>
    <!-- stage 6 -->
    <_>
      <maxWeakCount>15</maxWeakCount>
      <stageThreshold>-6.1308789253234863e-01</stageThreshold>
      <weakClassifiers>
        <_>
          <internalNodes>
            0 -1 62 -2.1151364780962467e-03</internalNodes>
          <leafValues>
            -5.5882352590560913e-01 4.2638036608695984e-01</leafValues></_>
        <_>
          <internalNodes>
            0 -1 90 -4.1178492829203606e-03</internalNodes>
          <leafValues>
            4.8098847270011902e-01 -1.8459989130496979e-01</leafValues></_>
        <_>
          <internalNodes>
            0 -1 79 1.0115157812833786e-02</internalNodes>
          <leafValues>
            1.1212582141160965e-01 -6.6407787799835205e-01</leafValues></_>
        <_>
          <internalNodes>
            0 -1 45 5.3079370409250259e-03</internalNodes>
          <leafValues>
            9.7072504460811615e-02 -6.8827348947525024e-01</leafValues></_>
        <_>
          <internalNodes>
            0 -1 26 -3.9884855505079031e-04</internalNodes>
          <leafValues>
            3.7680098414421082e-01 -2.3812465369701385e-01</leafValues></_>
        <_>
          <internalNodes>
            0 -1 61 -3.3743684180080891e-03</internalNodes>
          <leafValues>
            7.4401259422302246e-02 -8.1951993703842163e-01</leafValues></_>
        <_>
          <internalNodes>
            0 -1 29 -8.0092460848391056e-04</internalNodes>
          <leafValues>
            2.8641042113304138e-01 -2.9849463701248169e-01</leafValues></_>
        <_>
          <internalNodes>
            0 -1 55 -1.3040116056799889e-02</internalNodes>
          <leafValues>
            -8.6628800630569458e-01 1.0082276165485382e-01</leafValues></_>
        <_>
          <internalNodes>
            0 -1 76 -1.2172498740255833e-02</internalNodes>
          <leafValues>
            5.9516674280166626e-01 -1.6181033849716187e-01</leafValues></_>
        <_>
          <internalNodes>
            0 -1 48 5.7115708477795124e-03</internalNodes>
          <leafValues>
            1.7149241268634796e-01 -5.7957607507705688e-01</leafValues></_>
        <_>
          <internalNodes>
            0 -1 80 8.2118995487689972e-03</internalNodes>
          <leafValues>
            -2.5251010060310364e-01 3.6293396353721619e-01</leafValues></_>
        <_>
          <internalNodes>
            0 -1 11 -5.7190470397472382e-03</internalNodes>
          <leafValues>
            3.4448835253715515e-01 -2.6691988110542297e-01</leafValues></_>
        <_>
          <internalNodes>
            0 -1 110 -1.5182571951299906e-03</internalNodes>
          <leafValues>
            3.4389302134513855e-01 -2.4174922704696655e-01</leafValues></_>
        <_>
          <internalNodes>
            0 -1 60 -2.1906548645347357e-03</internalNodes>
          <leafValues>
            -4.3208613991737366e-01 1.8626910448074341e-01</leafValues></_>
        <_>
          <internalNodes>
            0 -1 112 -2.8888164088129997e-03</internalNodes>
          <leafValues>
            7.7609783411026001e-01 -1.3049639761447906e-01</leafValues></_></weakClassifiers></_>
    <!-- stage 7 -->
    <_>
      <maxWeakCount>15</maxWeakCount>
      <stageThreshold>-4.6643817424774170e-01</stageThreshold>
      <weakClassifiers>
        <_>
          <internalNodes>
            0 -1 96 -5.7843038812279701e-03</internalNodes>
          <leafValues>
            7.3949581384658813e-01 1.3278008997440338e-01</leafValues></_>
        <_>
          <internalNodes>
            0 -1 6 -9.8797485232353210e-02</internalNodes>
          <leafValues>
            7.9746270179748535e-01 -8.6461022496223450e-02</leafValues></_>
        <_>
          <internalNodes>
            0 -1 118 -1.6278410330414772e-02</internalNodes>
          <leafValues>
            5.3099697828292847e-01 -1.9896923005580902e-01</leafValues></_>
        <_>
          <internalNodes>
            0 -1 67 -3.3685164526104927e-03</internalNodes>
          <leafValues>
            1.1350037157535553e-01 -7.9817998409271240e-01</leafValues></_>
        <_>
          <internalNodes>
            0 -1 49 -1.1256117373704910e-02</internalNodes>
          <leafValues>
            -5.6658309698104858e-01 1.6095098853111267e-01</leafValues></_>
        <_>
          <internalNodes>
            0 -1 128 -5.8777518570423126e-02</internalNodes>
          <leafValues>
            2.2412537038326263e-01 -3.9095601439476013e-01</leafValues></_>
        <_>
          <internalNodes>
            0 -1 70 3.3208511304110289e-03</internalNodes>
          <leafValues>
            -1.5109480917453766e-01 4.8468255996704102e-01</leafValues></_>
        <_>
          <internalNodes>
            0 -1 4 -1.9548220559954643e-02</internalNodes>
          <leafValues>
            2.9266506433486938e-01 -2.8128105401992798e-01</leafValues></_>
        <_>
          <internalNodes>
            0 -1 83 -7.4132205918431282e-03</internalNodes>
          <leafValues>
            2.3984006047248840e-01 -4.4317662715911865e-01</leafValues></_>
        <_>
          <internalNodes>
            0 -1 98 5.4203318431973457e-03</internalNodes>
          <leafValues>
            -1.7542651295661926e-01 5.7497620582580566e-01</leafValues></_>
        <_>
          <internalNodes>
            0 -1 117 -1.5454710461199284e-02</internalNodes>
          <leafValues>
            9.0382254123687744e-01 -8.5132457315921783e-02</leafValues></_>
        <_>
          <internalNodes>
            0 -1 125 3.5860422998666763e-02</internalNodes>
          <leafValues>
            -7.4856981635093689e-02 7.8882664442062378e-01</leafValues></_>
        <_>
          <internalNodes>
            0 -1 10 -2.0147461444139481e-02</internalNodes>
          <leafValues>
            6.0947686433792114e-01 -1.3479767739772797e-01</leafValues></_>
        <_>
          <internalNodes>
            0 -1 3 -1.1613141000270844e-01</internalNodes>
          <leafValues>
            6.0227149724960327e-01 -1.2427148222923279e-01</leafValues></_>
        <_>
          <internalNodes>
            0 -1 21 -5.2744112908840179e-02</internalNodes>
          <leafValues>
            -5.8771800994873047e-01 1.7548348009586334e-01</leafValues></_></weakClassifiers></_>
    <!-- stage 8 -->
    <_>
      <maxWeakCount>19</maxWeakCount>
      <stageThreshold>-7.2742199897766113e-01</stageThreshold>
      <weakClassifiers>
        <_>
          <internalNodes>
            0 -1 73 -2.5257556699216366e-03</internalNodes>
          <leafValues>
            -7.3913043737411499e-01 4.0652820467948914e-01</leafValues></_>
        <_>
          <internalNodes>
            0 -1 94 -2.3389786947518587e-03</internalNodes>
          <leafValues>
            5.2208322286605835e-01 -1.6024360060691833e-01</leafValues></_>
        <_>
          <internalNodes>
            0 -1 32 -6.4010784029960632e-02</internalNodes>
          <leafValues>
            5.9642422199249268e-01 -1.5101535618305206e-01</leafValues></_>
        <_>
          <internalNodes>
            0 -1 14 -8.6034964770078659e-03</internalNodes>
          <leafValues>
            2.8277534246444702e-01 -2.8471368551254272e-01</leafValues></_>
        <_>
          <internalNodes>
            0 -1 104 -1.0210347361862659e-02</internalNodes>
          <leafValues>
            4.2425152659416199e-01 -2.0450030267238617e-01</leafValues></_>
        <_>
          <internalNodes>
            0 -1 42 -2.4459594860672951e-03</internalNodes>
          <leafValues>
            5.3510341793298721e-02 -9.4191730022430420e-01</leafValues></_>
        <_>
          <internalNodes>
            0 -1 69 -1.4831975568085909e-03</internalNodes>
          <leafValues>
            -4.9795645475387573e-01 1.5580101311206818e-01</leafValues></_>
        <_>
          <internalNodes>
            0 -1 88 4.8780790530145168e-03</internalNodes>
          <leafValues>
            -2.5147932767868042e-01 3.3564335107803345e-01</leafValues></_>
        <_>
          <internalNodes>
            0 -1 0 2.1299025043845177e-02</internalNodes>
          <leafValues>
            -1.4265424013137817e-01 5.5793774127960205e-01</leafValues></_>
        <_>
          <internalNodes>
            0 -1 17 7.7475616708397865e-03</internalNodes>
          <leafValues>
            -1.3797734677791595e-01 5.9519022703170776e-01</leafValues></_>
        <_>
          <internalNodes>
            0 -1 113 -8.8788364082574844e-03</internalNodes>
          <leafValues>
            -7.5560092926025391e-01 1.2447501718997955e-01</leafValues></_>
        <_>
          <internalNodes>
            0 -1 111 1.1773694306612015e-02</internalNodes>
          <leafValues>
            -1.8334367871284485e-01 4.2407432198524475e-01</leafValues></_>
        <_>
          <internalNodes>
            0 -1 28 -1.3381303870119154e-04</internalNodes>
          <leafValues>
            2.7080008387565613e-01 -2.5988501310348511e-01</leafValues></_>
        <_>
          <internalNodes>
            0 -1 102 2.4017933756113052e-03</internalNodes>
          <leafValues>
            -1.6028495132923126e-01 4.3148285150527954e-01</leafValues></_>
        <_>
          <internalNodes>
            0 -1 87 4.3271291069686413e-03</internalNodes>
          <leafValues>
            1.1427898705005646e-01 -6.9811117649078369e-01</leafValues></_>
        <_>
          <internalNodes>
            0 -1 86 3.0861950945109129e-03</internalNodes>
          <leafValues>
            7.0257686078548431e-02 -8.3840382099151611e-01</leafValues></_>
        <_>
          <internalNodes>
            0 -1 20 2.3185221478343010e-02</internalNodes>
          <leafValues>
            -1.3312356173992157e-01 5.9230089187622070e-01</leafValues></_>
        <_>
          <internalNodes>
            0 -1 37 4.6882079914212227e-03</internalNodes>
          <leafValues>
            1.1618942022323608e-01 -6.7151385545730591e-01</leafValues></_>
        <_>
          <internalNodes>
            0 -1 119 -1.9048884860239923e-04</internalNodes>
          <leafValues>
            2.6480334997177124e-01 -2.6673057675361633e-01</leafValues></_></weakClassifiers></_>
    <!-- stage 9 -->
    <_>
      <maxWeakCount>13</maxWeakCount>
      <stageThreshold>-6.3377821445465088e-01</stageThreshold>
      <weakClassifiers>
        <_>
          <internalNodes>
            0 -1 2 -1.3239635527133942e-01</internalNodes>
          <leafValues>
            7.1739131212234497e-01 9.4594597816467285e-02</leafValues></_>
        <_>
          <internalNodes>
            0 -1 91 -3.0311457812786102e-03</internalNodes>
          <leafValues>
            5.8868253231048584e-01 -1.0394505411386490e-01</leafValues></_>
        <_>
          <internalNodes>
            0 -1 92 2.1800824906677008e-03</internalNodes>
          <leafValues>
            -1.6937015950679779e-01 5.4107171297073364e-01</leafValues></_>
        <_>
          <internalNodes>
            0 -1 116 2.3402897641062737e-02</internalNodes>
          <leafValues>
            1.7474301159381866e-01 -5.8202123641967773e-01</leafValues></_>
        <_>
          <internalNodes>
            0 -1 53 -9.8685573902912438e-05</internalNodes>
          <leafValues>
            2.6441121101379395e-01 -3.3752337098121643e-01</leafValues></_>
        <_>
          <internalNodes>
            0 -1 65 1.3936769217252731e-02</internalNodes>
          <leafValues>
            1.1613170057535172e-01 -6.8931871652603149e-01</leafValues></_>
        <_>
          <internalNodes>
            0 -1 22 -4.0888883173465729e-02</internalNodes>
          <leafValues>
            -7.2068661451339722e-01 9.5074921846389771e-02</leafValues></_>
        <_>
          <internalNodes>
            0 -1 127 -8.1234015524387360e-03</internalNodes>
          <leafValues>
            -4.7720938920974731e-01 1.6128876805305481e-01</leafValues></_>
        <_>
          <internalNodes>
            0 -1 126 -2.8101371601223946e-02</internalNodes>
          <leafValues>
            2.6286214590072632e-01 -3.0714645981788635e-01</leafValues></_>
        <_>
          <internalNodes>
            0 -1 85 2.1289838477969170e-03</internalNodes>
          <leafValues>
            1.1174790561199188e-01 -6.5146708488464355e-01</leafValues></_>
        <_>
          <internalNodes>
            0 -1 77 -6.7995563149452209e-02</internalNodes>
          <leafValues>
            -9.2320895195007324e-01 7.0863157510757446e-02</leafValues></_>
        <_>
          <internalNodes>
            0 -1 23 5.5155111476778984e-03</internalNodes>
          <leafValues>
            -3.8449019193649292e-01 2.1283107995986938e-01</leafValues></_>
        <_>
          <internalNodes>
            0 -1 124 -1.2921621091663837e-03</internalNodes>
          <leafValues>
            5.0829458236694336e-01 -1.5574704110622406e-01</leafValues></_></weakClassifiers></_></stages>
  <features>
    <_>
      <rects>
        <_>
          0 0 14 4 -1.</_>
        <_>
          0 0 7 2 2.</_>
        <_>
          7 2 7 2 2.</_></rects>
      <tilted>0</tilted></_>
    <_>
      <rects>
        <_>
          0 0 15 2 -1.</_>
        <_>
          0 1 15 1 2.</_></rects>
      <tilted>0</tilted></_>
    <_>
      <rects>
        <_>
          0 2 10 16 -1.</_>
        <_>
          5 2 5 16 2.</_></rects>
      <tilted>0</tilted></_>
    <_>
      <rects>
        <_>
          0 2 16 6 -1.</_>
        <_>
          8 2 8 6 2.</_></rects>
      <tilted>0</tilted></_>
    <_>
      <rects>
        <_>
          0 5 10 4 -1.</_>
        <_>
          5 5 5 4 2.</_></rects>
      <tilted>0</tilted></_>
    <_>
      <rects>
        <_>
          0 6 8 6 -1.</_>
        <_>
          4 6 4 6 2.</_></rects>
      <tilted>0</tilted></_>
    <_>
      <rects>
        <_>
          0 7 6 10 -1.</_>
        <_>
          3 7 3 10 2.</_></rects>
      <tilted>0</tilted></_>
    <_>
      <rects>
        <_>
          0 10 6 3 -1.</_>
        <_>
          3 10 3 3 2.</_></rects>
      <tilted>0</tilted></_>
    <_>
      <rects>
        <_>
          0 11 4 6 -1.</_>
        <_>
          2 11 2 6 2.</_></rects>
      <tilted>0</tilted></_>
    <_>
      <rects>
        <_>
          1 1 18 3 -1.</_>
        <_>
          7 1 6 3 2.</_></rects>
      <tilted>0</tilted></_>
    <_>
      <rects>
        <_>
          1 9 6 10 -1.</_>
        <_>
          1 9 3 5 2.</_>
        <_>
          4 14 3 5 2.</_></rects>
      <tilted>0</tilted></_>
    <_>
      <rects>
        <_>
          1 10 4 4 -1.</_>
        <_>
          3 10 2 4 2.</_></rects>
      <tilted>0</tilted></_>
    <_>
      <rects>
        <_>
          1 15 8 4 -1.</_>
        <_>
          1 15 4 2 2.</_>
        <_>
          5 17 4 2 2.</_></rects>
      <tilted>0</tilted></_>
    <_>
      <rects>
        <_>
          1 16 10 2 -1.</_>
        <_>
          1 17 10 1 2.</_></rects>
      <tilted>0</tilted></_>
    <_>
      <rects>
        <_>
          1 17 12 2 -1.</_>
        <_>
          7 17 6 2 2.</_></rects>
      <tilted>0</tilted></_>
    <_>
      <rects>
        <_>
          2 4 8 3 -1.</_>
        <_>
          6 4 4 3 2.</_></rects>
      <tilted>0</tilted></_>
    <_>
      <rects>
        <_>
          2 4 12 1 -1.</_>
        <_>
          8 4 6 1 2.</_></rects>
      <tilted>0</tilted></_>
    <_>
      <rects>
        <_>
          2 8 14 2 -1.</_>
        <_>
          2 8 7 1 2.</_>
        <_>
          9 9 7 1 2.</_></rects>
      <tilted>0</tilted></_>
    <_>
      <rects>
        <_>
          2 12 3 1 -1.</_>
        <_>
          3 12 1 1 2.</_></rects>
      <tilted>0</tilted></_>
    <_>
      <rects>
        <_>
          2 14 12 6 -1.</_>
        <_>
          2 17 12 3 2.</_></rects>
      <tilted>0</tilted></_>
    <_>
      <rects>
        <_>
          3 4 4 10 -1.</_>
        <_>
          3 4 2 5 2.</_>
        <_>
          5 9 2 5 2.</_></rects>
      <tilted>0</tilted></_>
    <_>
      <rects>
        <_>
          3 5 12 9 -1.</_>
        <_>
          9 5 6 9 2.</_></rects>
      <tilted>0</tilted></_>
    <_>
      <rects>
        <_>
          3 8 6 8 -1.</_>
        <_>
          3 12 6 4 2.</_></rects>
      <tilted>0</tilted></_>
    <_>
      <rects>
        <_>
          3 15 9 4 -1.</_>
        <_>
          3 17 9 2 2.</_></rects>
      <tilted>0</tilted></_>
    <_>
      <rects>
        <_>
          4 0 4 18 -1.</_>
        <_>
          6 0 2 18 2.</_></rects>
      <tilted>0</tilted></_>
    <_>
      <rects>
        <_>
          4 4 3 10 -1.</_>
        <_>
          4 9 3 5 2.</_></rects>
      <tilted>0</tilted></_>
    <_>
      <rects>
        <_>
          4 8 1 2 -1.</_>
        <_>
          4 9 1 1 2.</_></rects>
      <tilted>0</tilted></_>
    <_>
      <rects>
        <_>
          4 8 8 10 -1.</_>
        <_>
          4 8 4 5 2.</_>
        <_>
          8 13 4 5 2.</_></rects>
      <tilted>0</tilted></_>
    <_>
      <rects>
        <_>
          4 11 2 4 -1.</_>
        <_>
          4 13 2 2 2.</_></rects>
      <tilted>0</tilted></_>
    <_>
      <rects>
        <_>
          4 16 2 3 -1.</_>
        <_>
          5 16 1 3 2.</_></rects>
      <tilted>0</tilted></_>
    <_>
      <rects>
        <_>
          4 17 10 2 -1.</_>
        <_>
          4 18 10 1 2.</_></rects>
      <tilted>0</tilted></_>
    <_>
      <rects>
        <_>
          4 18 7 2 -1.</_>
        <_>
          4 19 7 1 2.</_></rects>
      <tilted>0</tilted></_>
    <_>
      <rects>
        <_>
          5 0 2 14 -1.</_>
        <_>
          5 7 2 7 2.</_></rects>
      <tilted>0</tilted></_>
    <_>
      <rects>
        <_>
          5 0 10 4 -1.</_>
        <_>
          5 0 5 2 2.</_>
        <_>
          10 2 5 2 2.</_></rects>
      <tilted>0</tilted></_>
    <_>
      <rects>
        <_>
          5 3 4 6 -1.</_>
        <_>
          7 3 2 6 2.</_></rects>
      <tilted>0</tilted></_>
    <_>
      <rects>
        <_>
          5 6 12 1 -1.</_>
        <_>
          11 6 6 1 2.</_></rects>
      <tilted>0</tilted></_>
    <_>
      <rects>
        <_>
          5 6 14 3 -1.</_>
        <_>
          12 6 7 3 2.</_></rects>
      <tilted>0</tilted></_>
    <_>
      <rects>
        <_>
          5 7 4 2 -1.</_>
        <_>
          5 7 2 1 2.</_>
        <_>
          7 8 2 1 2.</_></rects>
      <tilted>0</tilted></_>
    <_>
      <rects>
        <_>
          5 7 12 1 -1.</_>
        <_>
          11 7 6 1 2.</_></rects>
      <tilted>0</tilted></_>
    <_>
      <rects>
        <_>
          5 9 2 1 -1.</_>
        <_>
          6 9 1 1 2.</_></rects>
      <tilted>0</tilted></_>
    <_>
      <rects>
        <_>
          5 9 2 2 -1.</_>
        <_>
          5 9 1 1 2.</_>
        <_>
          6 10 1 1 2.</_></rects>
      <tilted>0</tilted></_>
    <_>
      <rects>
        <_>
          5 11 1 2 -1.</_>
        <_>
          5 12 1 1 2.</_></rects>
      <tilted>0</tilted></_>
    <_>
      <rects>
        <_>
          5 11 3 1 -1.</_>
        <_>
          6 11 1 1 2.</_></rects>
      <tilted>0</tilted></_>
    <_>
      <rects>
        <_>
          5 11 1 3 -1.</_>
        <_>
          5 12 1 1 2.</_></rects>
      <tilted>0</tilted></_>
    <_>
      <rects>
        <_>
          5 11 2 2 -1.</_>
        <_>
          5 11 1 1 2.</_>
        <_>
          6 12 1 1 2.</_></rects>
      <tilted>0</tilted></_>
    <_>
      <rects>
        <_>
          5 11 2 4 -1.</_>
        <_>
          5 13 2 2 2.</_></rects>
      <tilted>0</tilted></_>
    <_>
      <rects>
        <_>
          5 12 2 2 -1.</_>
        <_>
          5 12 1 1 2.</_>
        <_>
          6 13 1 1 2.</_></rects>
      <tilted>0</tilted></_>
    <_>
      <rects>
        <_>
          5 12 3 2 -1.</_>
        <_>
          5 13 3 1 2.</_></rects>
      <tilted>0</tilted></_>
    <_>
      <rects>
        <_>
          5 13 8 1 -1.</_>
        <_>
          9 13 4 1 2.</_></rects>
      <tilted>0</tilted></_>
    <_>
      <rects>
        <_>
          5 14 3 1 -1.</_>
        <_>
          6 14 1 1 2.</_></rects>
      <tilted>0</tilted></_>
    <_>
      <rects>
        <_>
          5 15 4 4 -1.</_>
        <_>
          5 17 4 2 2.</_></rects>
      <tilted>0</tilted></_>
    <_>
      <rects>
        <_>
          5 15 5 4 -1.</_>
        <_>
          5 17 5 2 2.</_></rects>
      <tilted>0</tilted></_>
    <_>
      <rects>
        <_>
          5 16 3 4 -1.</_>
        <_>
          5 18 3 2 2.</_></rects>
      <tilted>0</tilted></_>
    <_>
      <rects>
        <_>
          5 18 4 1 -1.</_>
        <_>
          7 18 2 1 2.</_></rects>
      <tilted>0</tilted></_>
    <_>
      <rects>
        <_>
          6 6 4 10 -1.</_>
        <_>
          8 6 2 10 2.</_></rects>
      <tilted>0</tilted></_>
    <_>
      <rects>
        <_>
          6 7 1 10 -1.</_>
        <_>
          6 12 1 5 2.</_></rects>
      <tilted>0</tilted></_>
    <_>
      <rects>
        <_>
          6 7 6 2 -1.</_>
        <_>
          9 7 3 2 2.</_></rects>
      <tilted>0</tilted></_>
    <_>
      <rects>
        <_>
          6 7 3 8 -1.</_>
        <_>
          6 11 3 4 2.</_></rects>
      <tilted>0</tilted></_>
    <_>
      <rects>
        <_>
          6 8 2 2 -1.</_>
        <_>
          6 8 1 1 2.</_>
        <_>
          7 9 1 1 2.</_></rects>
      <tilted>0</tilted></_>
    <_>
      <rects>
        <_>
          6 8 6 2 -1.</_>
        <_>
          9 8 3 2 2.</_></rects>
      <tilted>0</tilted></_>
    <_>
      <rects>
        <_>
          6 9 6 2 -1.</_>
        <_>
          9 9 3 2 2.</_></rects>
      <tilted>0</tilted></_>
    <_>
      <rects>
        <_>
          6 10 1 3 -1.</_>
        <_>
          6 11 1 1 2.</_></rects>
      <tilted>0</tilted></_>
    <_>
      <rects>
        <_>
          6 10 2 2 -1.</_>
        <_>
          6 10 1 1 2.</_>
        <_>
          7 11 1 1 2.</_></rects>
      <tilted>0</tilted></_>
    <_>
      <rects>
        <_>
          6 10 1 4 -1.</_>
        <_>
          6 12 1 2 2.</_></rects>
      <tilted>0</tilted></_>
    <_>
      <rects>
        <_>
          6 11 1 2 -1.</_>
        <_>
          6 12 1 1 2.</_></rects>
      <tilted>0</tilted></_>
    <_>
      <rects>
        <_>
          6 11 3 6 -1.</_>
        <_>
          6 14 3 3 2.</_></rects>
      <tilted>0</tilted></_>
    <_>
      <rects>
        <_>
          6 12 1 2 -1.</_>
        <_>
          6 13 1 1 2.</_></rects>
      <tilted>0</tilted></_>
    <_>
      <rects>
        <_>
          6 15 3 1 -1.</_>
        <_>
          7 15 1 1 2.</_></rects>
      <tilted>0</tilted></_>
    <_>
      <rects>
        <_>
          7 8 6 4 -1.</_>
        <_>
          7 8 3 2 2.</_>
        <_>
          10 10 3 2 2.</_></rects>
      <tilted>0</tilted></_>
    <_>
      <rects>
        <_>
          7 15 3 4 -1.</_>
        <_>
          7 17 3 2 2.</_></rects>
      <tilted>0</tilted></_>
    <_>
      <rects>
        <_>
          7 18 6 2 -1.</_>
        <_>
          7 18 3 1 2.</_>
        <_>
          10 19 3 1 2.</_></rects>
      <tilted>0</tilted></_>
    <_>
      <rects>
        <_>
          8 1 8 1 -1.</_>
        <_>
          12 1 4 1 2.</_></rects>
      <tilted>0</tilted></_>
    <_>
      <rects>
        <_>
          8 7 5 2 -1.</_>
        <_>
          8 8 5 1 2.</_></rects>
      <tilted>0</tilted></_>
    <_>
      <rects>
        <_>
          8 15 2 1 -1.</_>
        <_>
          9 15 1 1 2.</_></rects>
      <tilted>0</tilted></_>
    <_>
      <rects>
        <_>
          8 17 12 1 -1.</_>
        <_>
          14 17 6 1 2.</_></rects>
      <tilted>0</tilted></_>
    <_>
      <rects>
        <_>
          9 1 4 8 -1.</_>
        <_>
          9 1 2 4 2.</_>
        <_>
          11 5 2 4 2.</_></rects>
      <tilted>0</tilted></_>
    <_>
      <rects>
        <_>
          9 2 4 6 -1.</_>
        <_>
          9 2 2 3 2.</_>
        <_>
          11 5 2 3 2.</_></rects>
      <tilted>0</tilted></_>
    <_>
      <rects>
        <_>
          9 2 2 14 -1.</_>
        <_>
          9 9 2 7 2.</_></rects>
      <tilted>0</tilted></_>
    <_>
      <rects>
        <_>
          9 3 8 4 -1.</_>
        <_>
          13 3 4 4 2.</_></rects>
      <tilted>0</tilted></_>
    <_>
      <rects>
        <_>
          9 4 3 10 -1.</_>
        <_>
          9 9 3 5 2.</_></rects>
      <tilted>0</tilted></_>
    <_>
      <rects>
        <_>
          9 5 4 4 -1.</_>
        <_>
          11 5 2 4 2.</_></rects>
      <tilted>0</tilted></_>
    <_>
      <rects>
        <_>
          9 5 11 15 -1.</_>
        <_>
          9 10 11 5 2.</_></rects>
      <tilted>0</tilted></_>
    <_>
      <rects>
        <_>
          9 6 4 10 -1.</_>
        <_>
          9 11 4 5 2.</_></rects>
      <tilted>0</tilted></_>
    <_>
      <rects>
        <_>
          9 7 3 6 -1.</_>
        <_>
          9 10 3 3 2.</_></rects>
      <tilted>0</tilted></_>
    <_>
      <rects>
        <_>
          9 10 1 6 -1.</_>
        <_>
          9 12 1 2 2.</_></rects>
      <tilted>0</tilted></_>
    <_>
      <rects>
        <_>
          9 14 2 2 -1.</_>
        <_>
          10 14 1 2 2.</_></rects>
      <tilted>0</tilted></_>
    <_>
      <rects>
        <_>
          9 15 2 2 -1.</_>
        <_>
          9 15 1 1 2.</_>
        <_>
          10 16 1 1 2.</_></rects>
      <tilted>0</tilted></_>
    <_>
      <rects>
        <_>
          9 15 4 2 -1.</_>
        <_>
          9 15 2 1 2.</_>
        <_>
          11 16 2 1 2.</_></rects>
      <tilted>0</tilted></_>
    <_>
      <rects>
        <_>
          9 18 10 1 -1.</_>
        <_>
          14 18 5 1 2.</_></rects>
      <tilted>0</tilted></_>
    <_>
      <rects>
        <_>
          10 0 8 2 -1.</_>
        <_>
          10 1 8 1 2.</_></rects>
      <tilted>0</tilted></_>
    <_>
      <rects>
        <_>
          10 2 5 2 -1.</_>
        <_>
          10 3 5 1 2.</_></rects>
      <tilted>0</tilted></_>
    <_>
      <rects>
        <_>
          10 6 2 3 -1.</_>
        <_>
          11 6 1 3 2.</_></rects>
      <tilted>0</tilted></_>
    <_>
      <rects>
        <_>
          10 7 2 1 -1.</_>
        <_>
          11 7 1 1 2.</_></rects>
      <tilted>0</tilted></_>
    <_>
      <rects>
        <_>
          10 7 2 4 -1.</_>
        <_>
          10 9 2 2 2.</_></rects>
      <tilted>0</tilted></_>
    <_>
      <rects>
        <_>
          10 8 1 2 -1.</_>
        <_>
          10 9 1 1 2.</_></rects>
      <tilted>0</tilted></_>
    <_>
      <rects>
        <_>
          10 8 2 4 -1.</_>
        <_>
          10 10 2 2 2.</_></rects>
      <tilted>0</tilted></_>
    <_>
      <rects>
        <_>
          10 8 4 2 -1.</_>
        <_>
          10 9 4 1 2.</_></rects>
      <tilted>0</tilted></_>
    <_>
      <rects>
        <_>
          10 8 5 4 -1.</_>
        <_>
          10 10 5 2 2.</_></rects>
      <tilted>0</tilted></_>
    <_>
      <rects>
        <_>
          10 8 9 2 -1.</_>
        <_>
          10 9 9 1 2.</_></rects>
      <tilted>0</tilted></_>
    <_>
      <rects>
        <_>
          11 0 8 6 -1.</_>
        <_>
          11 3 8 3 2.</_></rects>
      <tilted>0</tilted></_>
    <_>
      <rects>
        <_>
          11 2 2 4 -1.</_>
        <_>
          11 4 2 2 2.</_></rects>
      <tilted>0</tilted></_>
    <_>
      <rects>
        <_>
          11 2 3 2 -1.</_>
        <_>
          11 3 3 1 2.</_></rects>
      <tilted>0</tilted></_>
    <_>
      <rects>
        <_>
          11 6 2 2 -1.</_>
        <_>
          11 7 2 1 2.</_></rects>
      <tilted>0</tilted></_>
    <_>
      <rects>
        <_>
          11 6 2 8 -1.</_>
        <_>
          11 10 2 4 2.</_></rects>
      <tilted>0</tilted></_>
    <_>
      <rects>
        <_>
          11 8 2 4 -1.</_>
        <_>
          11 10 2 2 2.</_></rects>
      <tilted>0</tilted></_>
    <_>
      <rects>
        <_>
          11 13 2 4 -1.</_>
        <_>
          11 13 1 2 2.</_>
        <_>
          12 15 1 2 2.</_></rects>
      <tilted>0</tilted></_>
    <_>
      <rects>
        <_>
          12 0 2 2 -1.</_>
        <_>
          12 1 2 1 2.</_></rects>
      <tilted>0</tilted></_>
    <_>
      <rects>
        <_>
          12 0 4 6 -1.</_>
        <_>
          12 3 4 3 2.</_></rects>
      <tilted>0</tilted></_>
    <_>
      <rects>
        <_>
          12 3 1 3 -1.</_>
        <_>
          12 4 1 1 2.</_></rects>
      <tilted>0</tilted></_>
    <_>
      <rects>
        <_>
          12 3 4 17 -1.</_>
        <_>
          14 3 2 17 2.</_></rects>
      <tilted>0</tilted></_>
    <_>
      <rects>
        <_>
          12 3 3 2 -1.</_>
        <_>
          12 4 3 1 2.</_></rects>
      <tilted>0</tilted></_>
    <_>
      <rects>
        <_>
          12 4 6 2 -1.</_>
        <_>
          15 4 3 2 2.</_></rects>
      <tilted>0</tilted></_>
    <_>
      <rects>
        <_>
          12 7 1 2 -1.</_>
        <_>
          12 8 1 1 2.</_></rects>
      <tilted>0</tilted></_>
    <_>
      <rects>
        <_>
          12 11 2 6 -1.</_>
        <_>
          12 11 1 3 2.</_>
        <_>
          13 14 1 3 2.</_></rects>
      <tilted>0</tilted></_>
    <_>
      <rects>
        <_>
          12 13 1 3 -1.</_>
        <_>
          12 14 1 1 2.</_></rects>
      <tilted>0</tilted></_>
    <_>
      <rects>
        <_>
          13 0 4 17 -1.</_>
        <_>
          15 0 2 17 2.</_></rects>
      <tilted>0</tilted></_>
    <_>
      <rects>
        <_>
          13 3 5 6 -1.</_>
        <_>
          13 6 5 3 2.</_></rects>
      <tilted>0</tilted></_>
    <_>
      <rects>
        <_>
          13 6 2 4 -1.</_>
        <_>
          13 8 2 2 2.</_></rects>
      <tilted>0</tilted></_>
    <_>
      <rects>
        <_>
          15 2 4 8 -1.</_>
        <_>
          17 2 2 8 2.</_></rects>
      <tilted>0</tilted></_>
    <_>
      <rects>
        <_>
          15 3 1 2 -1.</_>
        <_>
          15 4 1 1 2.</_></rects>
      <tilted>0</tilted></_>
    <_>
      <rects>
        <_>
          15 3 4 6 -1.</_>
        <_>
          17 3 2 6 2.</_></rects>
      <tilted>0</tilted></_>
    <_>
      <rects>
        <_>
          15 5 4 4 -1.</_>
        <_>
          17 5 2 4 2.</_></rects>
      <tilted>0</tilted></_>
    <_>
      <rects>
        <_>
          15 5 4 6 -1.</_>
        <_>
          17 5 2 6 2.</_></rects>
      <tilted>0</tilted></_>
    <_>
      <rects>
        <_>
          15 9 2 6 -1.</_>
        <_>
          15 9 1 3 2.</_>
        <_>
          16 12 1 3 2.</_></rects>
      <tilted>0</tilted></_>
    <_>
      <rects>
        <_>
          15 13 2 2 -1.</_>
        <_>
          15 13 1 1 2.</_>
        <_>
          16 14 1 1 2.</_></rects>
      <tilted>0</tilted></_>
    <_>
      <rects>
        <_>
          17 7 3 10 -1.</_>
        <_>
          17 12 3 5 2.</_></rects>
      <tilted>0</tilted></_>
    <_>
      <rects>
        <_>
          17 12 3 3 -1.</_>
        <_>
          18 12 1 3 2.</_></rects>
      <tilted>0</tilted></_>
    <_>
      <rects>
        <_>
          18 14 2 6 -1.</_>
        <_>
          18 17 2 3 2.</_></rects>
      <tilted>0</tilted></_>
    <_>
      <rects>
        <_>
          19 0 1 18 -1.</_>
        <_>
          19 6 1 6 2.</_></rects>
      <tilted>0</tilted></_></features></cascade>
</opencv_storage>
