<?xml version="1.0"?>
<opencv_storage>
<stage6>
  <maxWeakCount>21</maxWeakCount>
  <stageThreshold>-9.1910630464553833e-01</stageThreshold>
  <weakClassifiers>
    <_>
      <internalNodes>
        0 -1 48265 -1.6050826758146286e-02</internalNodes>
      <leafValues>
        8.0909091234207153e-01 5.7894736528396606e-02</leafValues></_>
    <_>
      <internalNodes>
        0 -1 58006 -1.9392495974898338e-02</internalNodes>
      <leafValues>
        -1.4774955809116364e-01 5.9132629632949829e-01</leafValues></_>
    <_>
      <internalNodes>
        0 -1 52690 -9.5364749431610107e-03</internalNodes>
      <leafValues>
        8.1131869554519653e-01 -1.0079085826873779e-01</leafValues></_>
    <_>
      <internalNodes>
        0 -1 46650 -3.2079823315143585e-02</internalNodes>
      <leafValues>
        1.5713486075401306e-01 -5.1845979690551758e-01</leafValues></_>
    <_>
      <internalNodes>
        0 -1 24533 -1.2050782144069672e-01</internalNodes>
      <leafValues>
        -6.2895494699478149e-01 1.1296262592077255e-01</leafValues></_>
    <_>
      <internalNodes>
        0 -1 42692 -4.9881609156727791e-03</internalNodes>
      <leafValues>
        -4.6781241893768311e-01 1.7876332998275757e-01</leafValues></_>
    <_>
      <internalNodes>
        0 -1 9600 -2.1009430289268494e-01</internalNodes>
      <leafValues>
        3.5599389672279358e-01 -2.4661611020565033e-01</leafValues></_>
    <_>
      <internalNodes>
        0 -1 35440 5.0077615305781364e-03</internalNodes>
      <leafValues>
        -1.7246271669864655e-01 4.3511673808097839e-01</leafValues></_>
    <_>
      <internalNodes>
        0 -1 34407 4.0654003620147705e-02</internalNodes>
      <leafValues>
        1.3974384963512421e-01 -5.9026068449020386e-01</leafValues></_>
    <_>
      <internalNodes>
        0 -1 15381 -2.1026238799095154e-02</internalNodes>
      <leafValues>
        6.6446936130523682e-01 -1.2232523411512375e-01</leafValues></_>
    <_>
      <internalNodes>
        0 -1 59388 4.7794231795705855e-04</internalNodes>
      <leafValues>
        -4.7193247079849243e-01 2.2924748063087463e-01</leafValues></_>
    <_>
      <internalNodes>
        0 -1 0 9.4895623624324799e-04</internalNodes>
      <leafValues>
        1.4969822764396667e-01 -4.4075700640678406e-01</leafValues></_>
    <_>
      <internalNodes>
        0 -1 15699 -4.2193206027150154e-03</internalNodes>
      <leafValues>
        2.5330916047096252e-01 -2.6813533902168274e-01</leafValues></_>
    <_>
      <internalNodes>
        0 -1 41094 -1.0667601600289345e-02</internalNodes>
      <leafValues>
        7.9899913072586060e-01 -1.1206189543008804e-01</leafValues></_>
    <_>
      <internalNodes>
        0 -1 42166 3.2722116447985172e-03</internalNodes>
      <leafValues>
        1.4294902980327606e-01 -6.1517155170440674e-01</leafValues></_>
    <_>
      <internalNodes>
        0 -1 31289 5.6318882852792740e-03</internalNodes>
      <leafValues>
        -4.1887906193733215e-01 1.8587216734886169e-01</leafValues></_>
    <_>
      <internalNodes>
        0 -1 64534 3.8416188908740878e-04</internalNodes>
      <leafValues>
        -2.7900707721710205e-01 2.3988407850265503e-01</leafValues></_>
    <_>
      <internalNodes>
        0 -1 61022 3.5076360218226910e-03</internalNodes>
      <leafValues>
        -8.9680701494216919e-02 7.1336925029754639e-01</leafValues></_>
    <_>
      <internalNodes>
        0 -1 31179 8.7402574717998505e-04</internalNodes>
      <leafValues>
        2.4713054299354553e-01 -3.2169142365455627e-01</leafValues></_>
    <_>
      <internalNodes>
        0 -1 60833 4.1600707918405533e-03</internalNodes>
      <leafValues>
        -1.7025177180767059e-01 5.7679188251495361e-01</leafValues></_>
    <_>
      <internalNodes>
        0 -1 62068 -1.0248849168419838e-02</internalNodes>
      <leafValues>
        -7.6960396766662598e-01 1.1741915345191956e-01</leafValues></_></weakClassifiers></stage6>
</opencv_storage>
