<?xml version="1.0"?>
<opencv_storage>
<stage2>
  <maxWeakCount>8</maxWeakCount>
  <stageThreshold>-3.0415192246437073e-01</stageThreshold>
  <weakClassifiers>
    <_>
      <internalNodes>
        0 -1 56638 -5.1512420177459717e-01</internalNodes>
      <leafValues>
        7.2340422868728638e-01 -9.3023255467414856e-02</leafValues></_>
    <_>
      <internalNodes>
        0 -1 57004 -3.8029644638299942e-03</internalNodes>
      <leafValues>
        3.5968631505966187e-01 -5.0189626216888428e-01</leafValues></_>
    <_>
      <internalNodes>
        0 -1 62701 -3.0600856989622116e-02</internalNodes>
      <leafValues>
        5.6883662939071655e-01 -2.8789794445037842e-01</leafValues></_>
    <_>
      <internalNodes>
        0 -1 37337 -1.4731852337718010e-02</internalNodes>
      <leafValues>
        -6.4709627628326416e-01 1.7920629680156708e-01</leafValues></_>
    <_>
      <internalNodes>
        0 -1 39564 2.7268033009022474e-03</internalNodes>
      <leafValues>
        -4.1389328241348267e-01 3.1292718648910522e-01</leafValues></_>
    <_>
      <internalNodes>
        0 -1 65809 4.4865235686302185e-03</internalNodes>
      <leafValues>
        -1.5576465427875519e-01 8.2117849588394165e-01</leafValues></_>
    <_>
      <internalNodes>
        0 -1 32103 2.8804726898670197e-02</internalNodes>
      <leafValues>
        1.5949477255344391e-01 -7.9918688535690308e-01</leafValues></_>
    <_>
      <internalNodes>
        0 -1 43813 2.7669295668601990e-03</internalNodes>
      <leafValues>
        1.4903944730758667e-01 -7.3362559080123901e-01</leafValues></_></weakClassifiers></stage2>
</opencv_storage>
