<?xml version="1.0"?>
<opencv_storage>
<stage5>
  <maxWeakCount>19</maxWeakCount>
  <stageThreshold>-8.5562497377395630e-01</stageThreshold>
  <weakClassifiers>
    <_>
      <internalNodes>
        0 -1 52695 -7.6854508370161057e-03</internalNodes>
      <leafValues>
        7.3693084716796875e-01 -6.0955520719289780e-02</leafValues></_>
    <_>
      <internalNodes>
        0 -1 44350 9.5135439187288284e-03</internalNodes>
      <leafValues>
        -1.8524403870105743e-01 5.8532768487930298e-01</leafValues></_>
    <_>
      <internalNodes>
        0 -1 52690 -8.2270484417676926e-03</internalNodes>
      <leafValues>
        8.5102200508117676e-01 -1.1470197141170502e-01</leafValues></_>
    <_>
      <internalNodes>
        0 -1 708 -1.8459536135196686e-02</internalNodes>
      <leafValues>
        5.7657176256179810e-01 -1.7431969940662384e-01</leafValues></_>
    <_>
      <internalNodes>
        0 -1 10494 3.4730795305222273e-03</internalNodes>
      <leafValues>
        -1.9367420673370361e-01 5.5684518814086914e-01</leafValues></_>
    <_>
      <internalNodes>
        0 -1 37561 -4.8006596043705940e-03</internalNodes>
      <leafValues>
        -5.6919771432876587e-01 1.9387400150299072e-01</leafValues></_>
    <_>
      <internalNodes>
        0 -1 36673 1.8415877129882574e-03</internalNodes>
      <leafValues>
        2.1189182996749878e-01 -4.9085819721221924e-01</leafValues></_>
    <_>
      <internalNodes>
        0 -1 57157 9.4016245566308498e-04</internalNodes>
      <leafValues>
        -2.7015015482902527e-01 4.2135089635848999e-01</leafValues></_>
    <_>
      <internalNodes>
        0 -1 57197 -9.2906337231397629e-03</internalNodes>
      <leafValues>
        8.7959825992584229e-01 -8.1627696752548218e-02</leafValues></_>
    <_>
      <internalNodes>
        0 -1 68673 -3.8441613316535950e-02</internalNodes>
      <leafValues>
        -1.1023835092782974e-01 6.8155288696289062e-01</leafValues></_>
    <_>
      <internalNodes>
        0 -1 61065 9.5534906722605228e-04</internalNodes>
      <leafValues>
        -2.6314949989318848e-01 3.2092911005020142e-01</leafValues></_>
    <_>
      <internalNodes>
        0 -1 70415 -3.0130073428153992e-02</internalNodes>
      <leafValues>
        -8.6003774404525757e-01 8.2306846976280212e-02</leafValues></_>
    <_>
      <internalNodes>
        0 -1 64802 3.1646757852286100e-03</internalNodes>
      <leafValues>
        -1.8210297822952271e-01 4.4470641016960144e-01</leafValues></_>
    <_>
      <internalNodes>
        0 -1 41591 -4.9401715397834778e-02</internalNodes>
      <leafValues>
        -6.8933916091918945e-01 1.2784688174724579e-01</leafValues></_>
    <_>
      <internalNodes>
        0 -1 1623 6.8602673709392548e-03</internalNodes>
      <leafValues>
        -2.3750075697898865e-01 3.3466184139251709e-01</leafValues></_>
    <_>
      <internalNodes>
        0 -1 51101 3.9746463298797607e-02</internalNodes>
      <leafValues>
        9.9017068743705750e-02 -8.3306002616882324e-01</leafValues></_>
    <_>
      <internalNodes>
        0 -1 60788 -1.7247614450752735e-03</internalNodes>
      <leafValues>
        5.5924475193023682e-01 -1.4547881484031677e-01</leafValues></_>
    <_>
      <internalNodes>
        0 -1 35286 -6.9381101056933403e-03</internalNodes>
      <leafValues>
        -5.9072536230087280e-01 1.3891093432903290e-01</leafValues></_>
    <_>
      <internalNodes>
        0 -1 68342 1.1433919426053762e-03</internalNodes>
      <leafValues>
        -1.9846679270267487e-01 4.3172433972358704e-01</leafValues></_></weakClassifiers></stage5>
</opencv_storage>
