<?xml version="1.0"?>
<opencv_storage>
<stage1>
  <maxWeakCount>12</maxWeakCount>
  <stageThreshold>-1.3429278135299683e+00</stageThreshold>
  <weakClassifiers>
    <_>
      <internalNodes>
        0 -1 56162 -9.7343087196350098e-02</internalNodes>
      <leafValues>
        -3.9285713434219360e-01 6.8564355373382568e-01</leafValues></_>
    <_>
      <internalNodes>
        0 -1 52695 -1.1539613828063011e-02</internalNodes>
      <leafValues>
        7.9767113924026489e-01 -2.1406355500221252e-01</leafValues></_>
    <_>
      <internalNodes>
        0 -1 57157 2.0179380662739277e-03</internalNodes>
      <leafValues>
        -1.5856435894966125e-01 7.5440770387649536e-01</leafValues></_>
    <_>
      <internalNodes>
        0 -1 21210 -8.7335273623466492e-02</internalNodes>
      <leafValues>
        -2.2025772929191589e-01 7.1969568729400635e-01</leafValues></_>
    <_>
      <internalNodes>
        0 -1 45535 -5.6990804150700569e-03</internalNodes>
      <leafValues>
        5.0847303867340088e-01 -3.0857190489768982e-01</leafValues></_>
    <_>
      <internalNodes>
        0 -1 42475 1.4459802769124508e-03</internalNodes>
      <leafValues>
        -4.9986022710800171e-01 3.5034710168838501e-01</leafValues></_>
    <_>
      <internalNodes>
        0 -1 57197 5.4138973355293274e-03</internalNodes>
      <leafValues>
        -2.0783211290836334e-01 6.9920140504837036e-01</leafValues></_>
    <_>
      <internalNodes>
        0 -1 75156 -2.1280430257320404e-02</internalNodes>
      <leafValues>
        -9.7889143228530884e-01 2.0409224927425385e-01</leafValues></_>
    <_>
      <internalNodes>
        0 -1 48854 5.9140473604202271e-03</internalNodes>
      <leafValues>
        -3.4450009465217590e-01 3.9169499278068542e-01</leafValues></_>
    <_>
      <internalNodes>
        0 -1 37543 4.8899375833570957e-03</internalNodes>
      <leafValues>
        -4.9385851621627808e-01 2.3640196025371552e-01</leafValues></_>
    <_>
      <internalNodes>
        0 -1 49415 3.8694581016898155e-03</internalNodes>
      <leafValues>
        -2.0925423502922058e-01 5.6528449058532715e-01</leafValues></_>
    <_>
      <internalNodes>
        0 -1 68630 -4.5893155038356781e-02</internalNodes>
      <leafValues>
        -1.6465246677398682e-01 6.4860695600509644e-01</leafValues></_></weakClassifiers></stage1>
</opencv_storage>
