<?xml version="1.0"?>
<opencv_storage>
<stage5>
  <maxWeakCount>14</maxWeakCount>
  <stageThreshold>-5.7886278629302979e-01</stageThreshold>
  <weakClassifiers>
    <_>
      <internalNodes>
        0 -1 59535 -2.6169139891862869e-03</internalNodes>
      <leafValues>
        6.5479451417922974e-01 2.8169013094156981e-03</leafValues></_>
    <_>
      <internalNodes>
        0 -1 17528 -1.1362336575984955e-02</internalNodes>
      <leafValues>
        6.1225992441177368e-01 -1.4413468539714813e-01</leafValues></_>
    <_>
      <internalNodes>
        0 -1 74057 -7.5230081565678120e-03</internalNodes>
      <leafValues>
        4.3153381347656250e-01 -2.6376435160636902e-01</leafValues></_>
    <_>
      <internalNodes>
        0 -1 52813 3.0482527799904346e-03</internalNodes>
      <leafValues>
        -2.2448036074638367e-01 4.6770337224006653e-01</leafValues></_>
    <_>
      <internalNodes>
        0 -1 14572 8.4125567227602005e-03</internalNodes>
      <leafValues>
        -2.1549616754055023e-01 5.0998765230178833e-01</leafValues></_>
    <_>
      <internalNodes>
        0 -1 38133 1.7691004322841763e-03</internalNodes>
      <leafValues>
        1.5484051406383514e-01 -8.5833168029785156e-01</leafValues></_>
    <_>
      <internalNodes>
        0 -1 68830 2.8489330783486366e-02</internalNodes>
      <leafValues>
        -2.1953198313713074e-01 4.5134508609771729e-01</leafValues></_>
    <_>
      <internalNodes>
        0 -1 38699 1.4294724678620696e-03</internalNodes>
      <leafValues>
        1.5296991169452667e-01 -6.7057174444198608e-01</leafValues></_>
    <_>
      <internalNodes>
        0 -1 43000 -3.0303422361612320e-02</internalNodes>
      <leafValues>
        -8.9136797189712524e-01 8.5089497268199921e-02</leafValues></_>
    <_>
      <internalNodes>
        0 -1 38698 -4.3275323696434498e-03</internalNodes>
      <leafValues>
        1.2895104289054871e-01 -6.7673742771148682e-01</leafValues></_>
    <_>
      <internalNodes>
        0 -1 30373 -4.8893079161643982e-02</internalNodes>
      <leafValues>
        7.1504455804824829e-01 -1.6602803766727448e-01</leafValues></_>
    <_>
      <internalNodes>
        0 -1 63099 -4.9577653408050537e-03</internalNodes>
      <leafValues>
        4.7174733877182007e-01 -1.9632132351398468e-01</leafValues></_>
    <_>
      <internalNodes>
        0 -1 37659 -2.2243198473006487e-03</internalNodes>
      <leafValues>
        -6.0706210136413574e-01 1.5748994052410126e-01</leafValues></_>
    <_>
      <internalNodes>
        0 -1 14370 4.4404705986380577e-03</internalNodes>
      <leafValues>
        -3.2545265555381775e-01 3.1446388363838196e-01</leafValues></_></weakClassifiers></stage5>
</opencv_storage>
