<?xml version="1.0"?>
<opencv_storage>
<stage4>
  <maxWeakCount>22</maxWeakCount>
  <stageThreshold>-8.6307388544082642e-01</stageThreshold>
  <weakClassifiers>
    <_>
      <internalNodes>
        0 -1 1462 -2.1729677915573120e-01</internalNodes>
      <leafValues>
        -1.9141323864459991e-01 7.9095160961151123e-01</leafValues></_>
    <_>
      <internalNodes>
        0 -1 78458 -1.4374657534062862e-02</internalNodes>
      <leafValues>
        -7.0768713951110840e-02 8.4238177537918091e-01</leafValues></_>
    <_>
      <internalNodes>
        0 -1 20880 -1.0224741697311401e-01</internalNodes>
      <leafValues>
        3.5102230310440063e-01 -2.5889477133750916e-01</leafValues></_>
    <_>
      <internalNodes>
        0 -1 57157 4.8006395809352398e-04</internalNodes>
      <leafValues>
        -1.6155090928077698e-01 5.4824411869049072e-01</leafValues></_>
    <_>
      <internalNodes>
        0 -1 74477 2.3083013365976512e-04</internalNodes>
      <leafValues>
        -1.6251780092716217e-01 4.2842155694961548e-01</leafValues></_>
    <_>
      <internalNodes>
        0 -1 74371 -1.2932368554174900e-03</internalNodes>
      <leafValues>
        5.1716309785842896e-01 -1.4678701758384705e-01</leafValues></_>
    <_>
      <internalNodes>
        0 -1 20333 -3.4947502613067627e-01</internalNodes>
      <leafValues>
        -4.9604389071464539e-01 1.3577744364738464e-01</leafValues></_>
    <_>
      <internalNodes>
        0 -1 70892 -8.9252053294330835e-04</internalNodes>
      <leafValues>
        6.6504573822021484e-01 -1.0786075890064240e-01</leafValues></_>
    <_>
      <internalNodes>
        0 -1 6069 -8.9468376245349646e-04</internalNodes>
      <leafValues>
        4.5104259252548218e-01 -1.1889997869729996e-01</leafValues></_>
    <_>
      <internalNodes>
        0 -1 72723 1.2151427799835801e-03</internalNodes>
      <leafValues>
        -1.0813190788030624e-01 5.3457361459732056e-01</leafValues></_>
    <_>
      <internalNodes>
        0 -1 51156 9.2112794518470764e-02</internalNodes>
      <leafValues>
        1.3093772530555725e-01 -5.0472885370254517e-01</leafValues></_>
    <_>
      <internalNodes>
        0 -1 63736 -3.6644693464040756e-02</internalNodes>
      <leafValues>
        -4.9500936269760132e-01 1.3102605938911438e-01</leafValues></_>
    <_>
      <internalNodes>
        0 -1 1418 -7.8291738033294678e-01</internalNodes>
      <leafValues>
        -7.4245601892471313e-01 8.8699154555797577e-02</leafValues></_>
    <_>
      <internalNodes>
        0 -1 20082 -6.4482763409614563e-02</internalNodes>
      <leafValues>
        -1.1084207892417908e-01 7.7193200588226318e-01</leafValues></_>
    <_>
      <internalNodes>
        0 -1 1575 1.6003478318452835e-02</internalNodes>
      <leafValues>
        1.2085440009832382e-01 -6.0942220687866211e-01</leafValues></_>
    <_>
      <internalNodes>
        0 -1 35260 -4.4384651118889451e-04</internalNodes>
      <leafValues>
        4.7896671295166016e-01 -1.4339371025562286e-01</leafValues></_>
    <_>
      <internalNodes>
        0 -1 66051 8.0490186810493469e-03</internalNodes>
      <leafValues>
        8.3860702812671661e-02 -7.8351533412933350e-01</leafValues></_>
    <_>
      <internalNodes>
        0 -1 8306 -2.3938247561454773e-01</internalNodes>
      <leafValues>
        -6.2176191806793213e-01 9.2521667480468750e-02</leafValues></_>
    <_>
      <internalNodes>
        0 -1 12599 -5.4492545314133167e-04</internalNodes>
      <leafValues>
        5.0724112987518311e-01 -1.1173165589570999e-01</leafValues></_>
    <_>
      <internalNodes>
        0 -1 58252 -1.9130776636302471e-03</internalNodes>
      <leafValues>
        6.2914335727691650e-01 -7.6889246702194214e-02</leafValues></_>
    <_>
      <internalNodes>
        0 -1 58252 2.0814544404856861e-04</internalNodes>
      <leafValues>
        -1.7617911100387573e-01 2.8735569119453430e-01</leafValues></_>
    <_>
      <internalNodes>
        0 -1 71198 3.1889205274637789e-05</internalNodes>
      <leafValues>
        -1.2932886183261871e-01 4.2484846711158752e-01</leafValues></_></weakClassifiers></stage4>
</opencv_storage>
