<?xml version="1.0"?>
<opencv_storage>
<stage4>
  <maxWeakCount>16</maxWeakCount>
  <stageThreshold>-8.4049242734909058e-01</stageThreshold>
  <weakClassifiers>
    <_>
      <internalNodes>
        0 -1 56109 -5.4545126855373383e-02</internalNodes>
      <leafValues>
        -1.3537117838859558e-01 6.2264150381088257e-01</leafValues></_>
    <_>
      <internalNodes>
        0 -1 26650 -8.1424470990896225e-03</internalNodes>
      <leafValues>
        4.4682922959327698e-01 -3.3260992169380188e-01</leafValues></_>
    <_>
      <internalNodes>
        0 -1 52974 -9.3044992536306381e-03</internalNodes>
      <leafValues>
        8.7603223323822021e-01 -1.3847789168357849e-01</leafValues></_>
    <_>
      <internalNodes>
        0 -1 53210 1.7728272359818220e-03</internalNodes>
      <leafValues>
        -2.1491853892803192e-01 6.5642201900482178e-01</leafValues></_>
    <_>
      <internalNodes>
        0 -1 56913 -3.4624692052602768e-03</internalNodes>
      <leafValues>
        7.3894625902175903e-01 -1.4437846839427948e-01</leafValues></_>
    <_>
      <internalNodes>
        0 -1 58885 -4.2192144319415092e-03</internalNodes>
      <leafValues>
        4.8523923754692078e-01 -2.3669894039630890e-01</leafValues></_>
    <_>
      <internalNodes>
        0 -1 48506 2.6076179929077625e-03</internalNodes>
      <leafValues>
        -1.4778512716293335e-01 6.6494727134704590e-01</leafValues></_>
    <_>
      <internalNodes>
        0 -1 19418 -7.0227812975645065e-03</internalNodes>
      <leafValues>
        -6.3530588150024414e-01 2.0348580181598663e-01</leafValues></_>
    <_>
      <internalNodes>
        0 -1 70078 -8.1176429986953735e-02</internalNodes>
      <leafValues>
        -2.0144872367382050e-01 5.7305324077606201e-01</leafValues></_>
    <_>
      <internalNodes>
        0 -1 61548 -1.4952345751225948e-02</internalNodes>
      <leafValues>
        -5.3791111707687378e-01 1.8509265780448914e-01</leafValues></_>
    <_>
      <internalNodes>
        0 -1 1115 5.5537419393658638e-03</internalNodes>
      <leafValues>
        -2.2182941436767578e-01 5.3412461280822754e-01</leafValues></_>
    <_>
      <internalNodes>
        0 -1 57197 6.6636288538575172e-03</internalNodes>
      <leafValues>
        -1.1025852710008621e-01 7.7391660213470459e-01</leafValues></_>
    <_>
      <internalNodes>
        0 -1 35437 -2.5369282811880112e-03</internalNodes>
      <leafValues>
        3.9354008436203003e-01 -2.0757918059825897e-01</leafValues></_>
    <_>
      <internalNodes>
        0 -1 50127 3.5040490329265594e-02</internalNodes>
      <leafValues>
        1.0375235229730606e-01 -8.8818728923797607e-01</leafValues></_>
    <_>
      <internalNodes>
        0 -1 57197 -7.6987072825431824e-03</internalNodes>
      <leafValues>
        6.7867755889892578e-01 -1.4343775808811188e-01</leafValues></_>
    <_>
      <internalNodes>
        0 -1 57253 -3.8826979696750641e-02</internalNodes>
      <leafValues>
        -7.4010717868804932e-01 1.4601638913154602e-01</leafValues></_></weakClassifiers></stage4>
</opencv_storage>
