<?xml version="1.0"?>
<opencv_storage>
<stage7>
  <maxWeakCount>15</maxWeakCount>
  <stageThreshold>-4.6643817424774170e-01</stageThreshold>
  <weakClassifiers>
    <_>
      <internalNodes>
        0 -1 61142 -5.7843038812279701e-03</internalNodes>
      <leafValues>
        7.3949581384658813e-01 1.3278008997440338e-01</leafValues></_>
    <_>
      <internalNodes>
        0 -1 4502 -9.8797485232353210e-02</internalNodes>
      <leafValues>
        7.9746270179748535e-01 -8.6461022496223450e-02</leafValues></_>
    <_>
      <internalNodes>
        0 -1 73922 -1.6278410330414772e-02</internalNodes>
      <leafValues>
        5.3099697828292847e-01 -1.9896923005580902e-01</leafValues></_>
    <_>
      <internalNodes>
        0 -1 44816 -3.3685164526104927e-03</internalNodes>
      <leafValues>
        1.1350037157535553e-01 -7.9817998409271240e-01</leafValues></_>
    <_>
      <internalNodes>
        0 -1 39332 -1.1256117373704910e-02</internalNodes>
      <leafValues>
        -5.6658309698104858e-01 1.6095098853111267e-01</leafValues></_>
    <_>
      <internalNodes>
        0 -1 78308 -5.8777518570423126e-02</internalNodes>
      <leafValues>
        2.2412537038326263e-01 -3.9095601439476013e-01</leafValues></_>
    <_>
      <internalNodes>
        0 -1 49932 3.3208511304110289e-03</internalNodes>
      <leafValues>
        -1.5109480917453766e-01 4.8468255996704102e-01</leafValues></_>
    <_>
      <internalNodes>
        0 -1 3531 -1.9548220559954643e-02</internalNodes>
      <leafValues>
        2.9266506433486938e-01 -2.8128105401992798e-01</leafValues></_>
    <_>
      <internalNodes>
        0 -1 57004 -7.4132205918431282e-03</internalNodes>
      <leafValues>
        2.3984006047248840e-01 -4.4317662715911865e-01</leafValues></_>
    <_>
      <internalNodes>
        0 -1 61227 5.4203318431973457e-03</internalNodes>
      <leafValues>
        -1.7542651295661926e-01 5.7497620582580566e-01</leafValues></_>
    <_>
      <internalNodes>
        0 -1 70024 -1.5454710461199284e-02</internalNodes>
      <leafValues>
        9.0382254123687744e-01 -8.5132457315921783e-02</leafValues></_>
    <_>
      <internalNodes>
        0 -1 77293 3.5860422998666763e-02</internalNodes>
      <leafValues>
        -7.4856981635093689e-02 7.8882664442062378e-01</leafValues></_>
    <_>
      <internalNodes>
        0 -1 12687 -2.0147461444139481e-02</internalNodes>
      <leafValues>
        6.0947686433792114e-01 -1.3479767739772797e-01</leafValues></_>
    <_>
      <internalNodes>
        0 -1 1856 -1.1613141000270844e-01</internalNodes>
      <leafValues>
        6.0227149724960327e-01 -1.2427148222923279e-01</leafValues></_>
    <_>
      <internalNodes>
        0 -1 24769 -5.2744112908840179e-02</internalNodes>
      <leafValues>
        -5.8771800994873047e-01 1.7548348009586334e-01</leafValues></_></weakClassifiers></stage7>
</opencv_storage>
