<?xml version="1.0"?>
<opencv_storage>
<stage9>
  <maxWeakCount>12</maxWeakCount>
  <stageThreshold>-5.9791612625122070e-01</stageThreshold>
  <weakClassifiers>
    <_>
      <internalNodes>
        0 -1 32528 -5.3069507703185081e-03</internalNodes>
      <leafValues>
        6.4993214607238770e-01 -1.7062635719776154e-01</leafValues></_>
    <_>
      <internalNodes>
        0 -1 48794 -1.3953028246760368e-02</internalNodes>
      <leafValues>
        7.6034998893737793e-01 -1.9865316152572632e-01</leafValues></_>
    <_>
      <internalNodes>
        0 -1 23464 -6.6818547248840332e-01</internalNodes>
      <leafValues>
        -1.4737911522388458e-01 7.8872174024581909e-01</leafValues></_>
    <_>
      <internalNodes>
        0 -1 73669 -4.6099876053631306e-03</internalNodes>
      <leafValues>
        7.4046325683593750e-01 -2.0023770630359650e-01</leafValues></_>
    <_>
      <internalNodes>
        0 -1 66051 -2.9726643115282059e-03</internalNodes>
      <leafValues>
        -4.5800787210464478e-01 3.5732752084732056e-01</leafValues></_>
    <_>
      <internalNodes>
        0 -1 68457 7.4209191370755434e-04</internalNodes>
      <leafValues>
        3.6252668499946594e-01 -3.9013719558715820e-01</leafValues></_>
    <_>
      <internalNodes>
        0 -1 7728 1.3441810733638704e-04</internalNodes>
      <leafValues>
        4.4425117969512939e-01 -3.4043076634407043e-01</leafValues></_>
    <_>
      <internalNodes>
        0 -1 1468 2.3150228662416339e-04</internalNodes>
      <leafValues>
        4.2382103204727173e-01 -3.3667153120040894e-01</leafValues></_>
    <_>
      <internalNodes>
        0 -1 32068 3.3185675740242004e-02</internalNodes>
      <leafValues>
        -2.7017650008201599e-01 5.5043810606002808e-01</leafValues></_>
    <_>
      <internalNodes>
        0 -1 7186 5.6549516739323735e-04</internalNodes>
      <leafValues>
        4.5306724309921265e-01 -3.5301062464714050e-01</leafValues></_>
    <_>
      <internalNodes>
        0 -1 66611 2.3127119056880474e-03</internalNodes>
      <leafValues>
        -2.8917005658149719e-01 4.8906925320625305e-01</leafValues></_>
    <_>
      <internalNodes>
        0 -1 48845 6.9692153483629227e-03</internalNodes>
      <leafValues>
        2.0390348136425018e-01 -6.6169548034667969e-01</leafValues></_></weakClassifiers></stage9>
</opencv_storage>
