<?xml version="1.0"?>
<opencv_storage>
<stage2>
  <maxWeakCount>12</maxWeakCount>
  <stageThreshold>-1.2939980030059814e+00</stageThreshold>
  <weakClassifiers>
    <_>
      <internalNodes>
        0 -1 48265 -1.0167667642235756e-02</internalNodes>
      <leafValues>
        7.9667282104492188e-01 -4.7040972858667374e-02</leafValues></_>
    <_>
      <internalNodes>
        0 -1 21205 -4.9458682537078857e-02</internalNodes>
      <leafValues>
        -2.7988499402999878e-01 6.2779319286346436e-01</leafValues></_>
    <_>
      <internalNodes>
        0 -1 48260 -5.7353135198354721e-03</internalNodes>
      <leafValues>
        8.6722910404205322e-01 -1.9399330019950867e-01</leafValues></_>
    <_>
      <internalNodes>
        0 -1 53245 -6.8834442645311356e-03</internalNodes>
      <leafValues>
        9.3255275487899780e-01 -1.7691841721534729e-01</leafValues></_>
    <_>
      <internalNodes>
        0 -1 58933 -5.3503261879086494e-03</internalNodes>
      <leafValues>
        6.1061245203018188e-01 -2.6204931735992432e-01</leafValues></_>
    <_>
      <internalNodes>
        0 -1 53210 9.6057489281520247e-04</internalNodes>
      <leafValues>
        -2.3494663834571838e-01 6.3251793384552002e-01</leafValues></_>
    <_>
      <internalNodes>
        0 -1 57428 3.5972506739199162e-03</internalNodes>
      <leafValues>
        -2.5612735748291016e-01 6.8850171566009521e-01</leafValues></_>
    <_>
      <internalNodes>
        0 -1 68641 -6.2239598482847214e-03</internalNodes>
      <leafValues>
        -1.6685947775840759e-01 8.5265511274337769e-01</leafValues></_>
    <_>
      <internalNodes>
        0 -1 60833 4.4970512390136719e-03</internalNodes>
      <leafValues>
        -1.1507184803485870e-01 8.4038162231445312e-01</leafValues></_>
    <_>
      <internalNodes>
        0 -1 57197 -5.8026527985930443e-03</internalNodes>
      <leafValues>
        8.4410458803176880e-01 -1.1627285927534103e-01</leafValues></_>
    <_>
      <internalNodes>
        0 -1 47924 2.2780785802751780e-03</internalNodes>
      <leafValues>
        -1.0029287636280060e-01 8.5154813528060913e-01</leafValues></_>
    <_>
      <internalNodes>
        0 -1 1837 -3.9587756618857384e-03</internalNodes>
      <leafValues>
        4.9765455722808838e-01 -2.5221812725067139e-01</leafValues></_></weakClassifiers></stage2>
</opencv_storage>
